{
  "features_info":
    {
      "cat_features_hash":null,
      "float_features":
        [
          {
            "borders":
              [
                4.0520586708225892e-07,
                4.6284597488011059e-07,
                4.8328286084142746e-07,
                6.3878655964799691e-07,
                6.6994510916629224e-07,
                9.9980320555914659e-07,
                1.0108965398103464e-06,
                1.2932432582601905e-06,
                1.3219937500252854e-06,
                1.3552458995036432e-06,
                1.6538784848307841e-06,
                2.031189069384709e-06,
                2.133609086740762e-06,
                2.2315180103760213e-06,
                2.2903336684976239e-06,
                2.3609841264260467e-06,
                2.5158747121167835e-06,
                2.8921215289301472e-06,
                2.9972845823067473e-06,
                3.109076260443544e-06,
                3.2906505111895967e-06,
                3.7818881537532434e-06,
                3.9670903788646683e-06,
                4.1468310882919468e-06,
                4.4553471525432542e-06,
                4.5772676458000205e-06,
                4.6514469431713223e-06,
                4.7556864046782721e-06,
                4.7964258556021377e-06,
                4.9306254368275404e-06,
                5.1127503866155166e-06,
                5.1710585466935299e-06,
                5.3754033615405206e-06,
                5.4731453928980045e-06,
                6.0554375522769988e-06,
                6.3785037127672695e-06,
                6.9259294832590967e-06,
                7.0190476435527671e-06,
                7.3882465585484169e-06,
                8.3424201875459403e-06,
                8.9959185061161406e-06,
                9.1629053713404574e-06,
                9.5305040304083377e-06,
                1.0019135515904054e-05,
                1.1035077477572486e-05,
                1.1144113159389235e-05,
                1.1577126315387432e-05,
                1.1740017725969665e-05,
                1.1922509656869806e-05,
                1.2350348697509617e-05,
                1.2962134860572405e-05,
                1.3502256479114294e-05,
                1.3546305126510561e-05,
                1.3723479241889436e-05,
                1.4119800653134007e-05,
                1.4929210010450333e-05,
                1.5591176634188741e-05,
                1.6822819816297852e-05,
                1.7143840523203835e-05,
                1.7727110389387235e-05,
                1.7880540326586924e-05,
                1.8477217963663861e-05,
                1.9206090655643493e-05,
                1.9737934053409845e-05,
                2.0010429579997435e-05,
                2.1925237888353877e-05,
                2.2935266315471381e-05,
                2.47935313382186e-05,
                2.5828809157246724e-05,
                2.7124044208903797e-05,
                2.8068694518879056e-05,
                2.8644852136494592e-05,
                2.9360737244132906e-05,
                3.0229966796468943e-05,
                3.1243002013070509e-05,
                3.3003725548041984e-05,
                3.5430108255241066e-05,
                3.704317714436911e-05,
                3.7103622162248939e-05,
                3.8890000723768026e-05,
                4.001680645160377e-05,
                4.1667262848932296e-05,
                4.8960268031805754e-05,
                5.066935409558937e-05,
                5.1038878154940903e-05,
                5.4461503168568015e-05,
                5.5514788982691243e-05,
                5.589931970462203e-05,
                5.6014869187492877e-05,
                6.4982792537193745e-05,
                6.9043526309542358e-05,
                7.4045921792276204e-05,
                7.9107405326794833e-05,
                9.3586517323274165e-05,
                9.8091863037552685e-05,
                0.00010732185910455883,
                0.00010926485992968082,
                0.00011146534961881116,
                0.00011360357166267931,
                0.00012206233805045485,
                0.00012693990720435977,
                0.00013170824968256056,
                0.00013887611567042768,
                0.00014201413432601839,
                0.00014399069186765701,
                0.00014954619109630585,
                0.00015577007434330881,
                0.00016380769375246018,
                0.00019071476708631963,
                0.00019381282618269324,
                0.000211981066968292,
                0.00021535941050387919,
                0.00022804799664299935,
                0.00023126465384848416,
                0.00024524948094040155,
                0.00026002962840721011,
                0.00027871940983459353,
                0.00028444707277230918,
                0.00028569641290232539,
                0.00028758420376107097,
                0.00030212663114070892,
                0.00031617452623322606,
                0.00032475797343067825,
                0.00032619270496070385,
                0.00035142293199896812,
                0.00035359003231860697,
                0.00038167863385751843,
                0.00039242825005203485,
                0.00042178053990937769,
                0.00042639701860025525,
                0.00043453468242660165,
                0.00045835194760002196,
                0.00051135715330019593,
                0.00052722549298778176,
                0.00052820576820522547,
                0.00053525925613939762,
                0.00057052646297961473,
                0.00061159167671576142,
                0.00063773710280656815,
                0.00066206656629219651,
                0.00066962814889848232,
                0.00070676312316209078,
                0.00071328558260574937,
                0.00073989096563309431,
                0.00076113501563668251,
                0.00079080573050305247,
                0.00080602156231179833,
                0.00081988825695589185,
                0.0008511144551448524,
                0.000882174470461905,
                0.00089995417511090636,
                0.00091349502326920629,
                0.00096109649166464806,
                0.0010364986956119537,
                0.0010561873205006123,
                0.0011101239360868931,
                0.0011292821727693081,
                0.0011484039714559913,
                0.0011783316731452942,
                0.0012573868734762073,
                0.0013112485175952315,
                0.001399210887029767,
                0.0014338952023535967,
                0.0014550016494467854,
                0.0015565049834549427,
                0.0016352384118363261,
                0.0016764057800173759,
                0.0017021790845319629,
                0.0017468276200816035,
                0.0018049611244350672,
                0.0018286104314029217,
                0.001848157960921526,
                0.0018773279152810574,
                0.0019908850081264973,
                0.0020300764590501785,
                0.0021263337694108486,
                0.0023164357990026474,
                0.0023602971341460943,
                0.0023772618733346462,
                0.0024426903109997511,
                0.0025976775214076042,
                0.0026407842524349689,
                0.0027299951761960983,
                0.0032563749700784683,
                0.0032925629056990147,
                0.0033865033183246851,
                0.003573079127818346,
                0.0036666837986558676,
                0.0037685534916818142,
                0.0040052426047623158,
                0.0041863666847348213,
                0.0044612763449549675,
                0.0045719407498836517,
                0.0048353862948715687,
                0.0049924282357096672,
                0.0058879596181213856,
                0.0059321545995771885,
                0.0061660818755626678,
                0.0064154993742704391,
                0.0069986684247851372,
                0.0080409683287143707,
                0.0082010272890329361,
                0.0084797386080026627,
                0.0088746305555105209,
                0.0095847500488162041,
                0.010140297934412956,
                0.011260466650128365,
                0.012291457504034042,
                0.012937247753143311,
                0.013138175010681152,
                0.014434069395065308,
                0.014764922671020031,
                0.017303537577390671,
                0.018145989626646042,
                0.020744878798723221,
                0.028493389487266541,
                0.038429901003837585,
                0.044602323323488235,
                0.049423981457948685,
                0.076756797730922699,
                0.1132759302854538
              ],
            "feature_index":0,
            "flat_feature_index":0,
            "has_nans":false,
            "nan_value_treatment":"AsIs"
          },
          {
            "borders":
              [
                0.016861762851476669,
                0.023128898814320564,
                0.028006266802549362,
                0.033723525702953339,
                0.040969900786876678,
                0.048766158521175385,
                0.05587318167090416,
                0.058257918804883957,
                0.067873306572437286,
                0.079002082347869873,
                0.088617458939552307,
                0.10213097929954529,
                0.11174636334180832,
                0.11651583760976791,
                0.12404091656208038,
                0.13278496265411377,
                0.14864864945411682,
                0.16761954128742218,
                0.18113306164741516,
                0.19074845314025879,
                0.19909502565860748,
                0.20871040225028992,
                0.2138773500919342,
                0.22972974181175232,
                0.25623703002929688,
                0.26975053548812866,
                0.28219395875930786,
                0.29570746421813965,
                0.30249482393264771,
                0.31561088562011719,
                0.32392686605453491,
                0.32562369108200073,
                0.33913719654083252,
                0.36486488580703735,
                0.38149690628051758,
                0.39423078298568726,
                0.40462577342987061,
                0.4189189076423645,
                0.44594594836235046,
                0.47011435031890869,
                0.48362785577774048,
                0.49324324727058411,
                0.50675678253173828,
                0.52146267890930176,
                0.53393667936325073,
                0.53950107097625732,
                0.55405402183532715,
                0.5810810923576355,
                0.60164511203765869,
                0.61317133903503418,
                0.61963433027267456,
                0.63513511419296265,
                0.65124738216400146,
                0.66476094722747803,
                0.68399167060852051,
                0.69750523567199707,
                0.70712053775787354,
                0.7206341028213501,
                0.73443007469177246,
                0.74456524848937988,
                0.75337839126586914,
                0.77027028799057007,
                0.79729729890823364,
                0.82432430982589722,
                0.84199583530426025,
                0.84954750537872314,
                0.85890305042266846,
                0.86512476205825806,
                0.875,
                0.88825362920761108,
                0.90182828903198242,
                0.91534179449081421,
                0.93243241310119629,
                0.95374214649200439,
                0.96725571155548096,
                0.98648649454116821
              ],
            "feature_index":1,
            "flat_feature_index":1,
            "has_nans":false,
            "nan_value_treatment":"AsIs"
          },
          {
            "borders":
              [
                0.92218005657196045,
                0.96816778182983398,
                0.9855034351348877,
                0.99019050598144531,
                0.99039936065673828,
                0.99636077880859375,
                1.0044267177581787,
                1.0090527534484863,
                1.0222315788269043,
                1.0676437616348267,
                1.0914480686187744,
                1.1186678409576416,
                1.1396030187606812,
                1.1569888591766357,
                1.1699438095092773,
                1.2387310266494751,
                1.2582590579986572,
                1.3017722368240356,
                1.3465572595596313,
                1.3834919929504395,
                1.3977937698364258,
                1.4203565120697021,
                1.4256672859191895,
                1.4297382831573486,
                1.4466290473937988,
                1.4517955780029297,
                1.5418438911437988,
                1.5433738231658936,
                1.5633543729782104,
                1.5942826271057129,
                1.6403369903564453,
                1.6585071086883545,
                1.6839015483856201,
                1.7236735820770264,
                1.7614215612411499,
                1.787402868270874,
                1.8164824247360229,
                1.8348703384399414,
                1.8415781259536743,
                1.8483937978744507,
                1.854379415512085,
                1.8659815788269043,
                1.873558521270752,
                1.8778629302978516,
                1.8861966133117676,
                1.8869966268539429,
                1.8954863548278809,
                1.9023342132568359,
                1.9081673622131348,
                1.9088983535766602,
                1.9123110771179199,
                1.9162112474441528,
                1.9163088798522949,
                1.9181392192840576,
                1.921442985534668,
                1.9382444620132446,
                1.9627707004547119,
                1.9860036373138428,
                2.017719030380249,
                2.0355598926544189,
                2.1307058334350586,
                2.1545305252075195,
                2.2287120819091797,
                2.3018403053283691,
                2.3238582611083984,
                2.3436493873596191,
                2.4029638767242432,
                2.4192490577697754,
                2.4992580413818359,
                2.5238471031188965,
                2.6025972366333008,
                2.6237175464630127,
                2.6462051868438721,
                2.6462187767028809,
                2.6462788581848145,
                2.6931533813476563,
                2.7282564640045166,
                2.8011636734008789,
                2.8547344207763672,
                2.9535646438598633,
                3.0729460716247559,
                3.2353911399841309,
                3.269838809967041,
                3.4280862808227539,
                3.5053539276123047,
                3.6407885551452637,
                3.6624879837036133,
                3.7449426651000977,
                3.787869930267334,
                3.8251233100891113,
                3.8314611911773682,
                3.8589053153991699,
                4.0519485473632813,
                4.2900352478027344,
                4.383054256439209,
                4.9130964279174805,
                5.2201848030090332,
                5.3112764358520508,
                5.3389177322387695,
                5.3671979904174805,
                5.5205526351928711,
                5.6931819915771484,
                5.7547268867492676,
                5.8059673309326172,
                6.0047454833984375,
                6.9786701202392578,
                7.2871580123901367,
                7.5872678756713867,
                8.5511436462402344,
                9.5775032043457031,
                9.8688678741455078,
                10.281875610351563,
                10.569052696228027,
                11.249350547790527,
                11.450422286987305,
                11.576854705810547,
                11.870100021362305,
                13.281054496765137,
                14.199151992797852,
                15.11468505859375,
                17.091316223144531,
                18.203351974487305,
                18.46006965637207,
                18.686677932739258,
                18.976005554199219,
                20.339508056640625,
                20.878910064697266,
                21.243904113769531,
                21.393692016601563,
                21.759210586547852,
                23.097028732299805,
                24.148626327514648,
                24.326034545898438,
                24.984840393066406,
                26.055522918701172,
                26.52801513671875,
                27.236942291259766,
                30.02580451965332,
                30.422885894775391,
                32.571250915527344,
                33.312263488769531,
                34.982414245605469,
                35.862754821777344,
                36.667259216308594,
                38.620937347412109,
                39.218681335449219,
                40.653732299804688,
                43.142372131347656,
                44.52081298828125,
                45.461891174316406,
                45.575157165527344,
                46.499885559082031,
                47.064247131347656,
                47.548450469970703,
                48.004562377929688,
                48.1416015625,
                49.708408355712891,
                50.616683959960938,
                51.4027099609375,
                51.780319213867188,
                52.967727661132813,
                53.672645568847656,
                53.958236694335938,
                55.155380249023438,
                55.745506286621094,
                56.986579895019531,
                58.423770904541016,
                59.186164855957031,
                59.453392028808594,
                61.942554473876953,
                62.615699768066406,
                63.509750366210938,
                64.828483581542969,
                65.703147888183594,
                66.041030883789063,
                67.008476257324219,
                67.245529174804688,
                70.12750244140625,
                71.408180236816406,
                72.393974304199219,
                72.670639038085938,
                73.276870727539063,
                73.708740234375,
                74.404983520507813,
                74.87738037109375,
                75.416702270507813,
                75.483169555664063,
                76.29193115234375,
                77.366424560546875,
                77.960769653320313,
                78.239456176757813,
                79.728927612304688,
                80.140243530273438,
                82.104248046875,
                83.513961791992188,
                83.663101196289063,
                84.390518188476563,
                85.433578491210938,
                86.179885864257813,
                86.754165649414063,
                87.5869140625,
                88.092483520507813,
                88.338607788085938,
                89.031089782714844,
                89.423988342285156,
                90.446144104003906,
                91.04901123046875,
                91.5347900390625,
                92.779266357421875,
                95.263397216796875,
                96.271011352539063,
                96.924530029296875,
                97.433624267578125,
                97.909660339355469,
                99.293411254882813
              ],
            "feature_index":2,
            "flat_feature_index":2,
            "has_nans":false,
            "nan_value_treatment":"AsIs"
          },
          {
            "borders":
              [
                1.0161962509155273,
                1.0510578155517578,
                1.0792022943496704,
                1.1139581203460693,
                1.1625218391418457,
                1.2108112573623657,
                1.4617924690246582,
                1.5262738466262817,
                1.683236837387085,
                1.7915031909942627,
                1.9363784790039063,
                1.9546369314193726,
                2.0052120685577393,
                2.1431288719177246,
                2.2976675033569336,
                2.310380220413208,
                2.433739185333252,
                2.4451045989990234,
                2.5571269989013672,
                2.6639237403869629,
                2.7656679153442383,
                2.9655473232269287,
                3.132237434387207,
                3.2066607475280762,
                3.4510631561279297,
                3.536001443862915,
                3.7950494289398193,
                3.8432033061981201,
                4.0491495132446289,
                4.1568717956542969,
                4.2098841667175293,
                4.2560458183288574,
                4.540501594543457,
                4.6595258712768555,
                5.1403560638427734,
                5.3035373687744141,
                5.6192836761474609,
                6.2386074066162109,
                6.8714370727539063,
                7.3578715324401855,
                8.1668415069580078,
                8.8097248077392578,
                9.6413164138793945,
                9.666961669921875,
                10.295680999755859,
                10.832024574279785,
                11.167692184448242,
                11.238302230834961,
                12.907025337219238,
                13.362695693969727,
                14.381389617919922,
                15.057079315185547,
                15.750897407531738,
                17.324111938476563,
                20.526803970336914,
                20.544219970703125,
                23.723567962646484,
                26.332773208618164,
                28.009298324584961,
                28.805656433105469,
                30.441493988037109,
                32.924667358398438,
                41.010459899902344,
                52.853729248046875,
                56.581794738769531,
                60.283470153808594,
                68.788330078125,
                78.534194946289063,
                84.031219482421875,
                90.711532592773438,
                94.284454345703125,
                99.804351806640625,
                105.54727935791016,
                110.22018432617188,
                113.10329437255859,
                125.24081420898438,
                126.66065979003906,
                131.84042358398438,
                138.62277221679688,
                148.51693725585938,
                155.010498046875,
                173.84765625,
                174.58282470703125,
                187.54632568359375,
                191.45916748046875,
                207.1243896484375,
                212.37483215332031,
                229.39027404785156,
                237.6016845703125,
                253.51351928710938,
                266.9722900390625,
                274.966796875,
                280.08221435546875,
                285.66998291015625,
                293.49710083007813,
                304.19342041015625,
                305.58392333984375,
                312.93325805664063,
                317.87542724609375,
                330.10601806640625,
                341.762451171875,
                357.19970703125,
                359.96286010742188,
                375.7376708984375,
                387.3929443359375,
                400.34283447265625,
                404.1358642578125,
                430.46343994140625,
                544.286376953125,
                559.2291259765625,
                579.43359375,
                582.27581787109375,
                618.16259765625,
                626.55963134765625,
                712.0859375,
                755.375244140625,
                773.65869140625,
                827.7177734375,
                873.53436279296875,
                878.8155517578125,
                922.41064453125,
                957.9146728515625,
                1160.46435546875,
                1266.1551513671875,
                1332.497802734375,
                1608.51171875,
                1613.99169921875,
                1688.0908203125,
                2200.343994140625,
                2277.126708984375,
                2374.6787109375,
                2578.36572265625,
                2889.701904296875,
                2941.7373046875,
                3015.21630859375,
                3043.111328125,
                3227.798828125,
                3268.44091796875,
                3420.0029296875,
                3455.913330078125,
                3660.31396484375,
                3731.015625,
                3894.17822265625,
                4077.88818359375,
                4249.87255859375,
                4374.1630859375,
                4540.55322265625,
                4640.4853515625,
                4911.0771484375,
                5165.2578125,
                5252.5712890625,
                5451.595703125,
                5639.9482421875,
                6396.3720703125,
                6518.06591796875,
                6803.3359375,
                7157.4697265625,
                7733.10791015625,
                7853.11962890625,
                8048.978515625,
                8737.93359375,
                9297.041015625,
                9586.25390625,
                10386.1640625,
                10994.75390625,
                11283.275390625,
                11517.220703125,
                11957.306640625,
                12341.7275390625,
                13067.349609375,
                13732.138671875,
                14533.541015625,
                14868.236328125,
                15174.275390625,
                15385.8603515625,
                16179.578125,
                17058.08984375,
                18104.1640625,
                18155.822265625,
                20605.810546875,
                21949.185546875,
                23350.208984375,
                24065.53125,
                24367.53515625,
                24780.80078125,
                27048.783203125,
                28781.201171875,
                31003.609375,
                32419.12890625,
                32755.119140625,
                33118.8671875,
                34008.8359375,
                37590.3671875,
                40611.515625,
                41225.04296875,
                43026.37890625,
                45387.3125,
                53138.1796875,
                57254.359375,
                64106.66015625,
                75823.59375,
                81797.9609375,
                83099.859375,
                87450.1796875,
                93694.703125,
                98135.4375,
                101445.609375,
                107455.90625,
                115196.5,
                126336.921875,
                133535.21875,
                158532.78125,
                172453.3125,
                205269.3125,
                214938.40625,
                234426.46875,
                283467.75,
                296902.125,
                342573.8125,
                377377.28125,
                530086,
                818981.625,
                1442479.5,
                2506615.5,
                2791366.5,
                3736708.5,
                3986746,
                5091614,
                6101813,
                7557001,
                15070350,
                19932680
              ],
            "feature_index":3,
            "flat_feature_index":3,
            "has_nans":false,
            "nan_value_treatment":"AsIs"
          }
        ]
    },
  "model_info":
    {
      "catboost_version_info":"Git info:\n    Commit: 280ef2e9eec735b20a698b77f4e41312bb882dd6\n    Branch: heads/master\n    Author: cerevra <cerevra@yandex-team.ru>\n    Summary: Revert \"[util] Retry madavise() if EAGAIN happend (PASSP-32654)\"\n    git-svn info:\n    Last Changed Rev: 8234219\n\nOther info:\n    Build by: zomb-ml-platform-oss\n    Top src dir: C:\\Program Files (x86)\\Go Agent\\pipelines\\BuildMaster\\catboost.git\n    Top build dir: C:\\Users\\zomb-ml-platform-msk\\.ya\\build\n    Hostname: platform-w10\n    Host information: \n        Microsoft Windows [Version 10.0.17134.2145]\n\n    ",
      "class_params":
        {
          "class_label_type":"Integer",
          "class_names":
            [
              0,
              1
            ],
          "class_to_label":
            [
              0,
              1
            ],
          "classes_count":0
        },
      "model_guid":"9e41dbf4-9439e338-a237967f-8bb01297",
      "output_options":"{\"name\":\"experiment\",\"verbose\":0,\"test_error_log\":\"test_error.tsv\",\"json_log\":\"catboost_training.json\",\"result_model_file\":\"model\",\"roc_file\":\"\",\"eval_file_name\":\"\",\"use_best_model\":false,\"allow_writing_files\":true,\"prediction_type\":[\"RawFormulaVal\"],\"fstr_internal_file\":\"\",\"output_columns\":[\"SampleId\",\"RawFormulaVal\",\"Label\"],\"snapshot_interval\":600,\"time_left_log\":\"time_left.tsv\",\"fstr_type\":\"FeatureImportance\",\"profile_log\":\"catboost_profile.log\",\"train_dir\":\"catboost_info\",\"learn_error_log\":\"learn_error.tsv\",\"training_options_file\":\"\",\"snapshot_file\":\"experiment.cbsnapshot\",\"save_snapshot\":false,\"model_format\":[\"CatboostBinary\"],\"final_feature_calcer_computation_mode\":\"Default\",\"metric_period\":1,\"output_borders\":\"\",\"final_ctr_computation_mode\":\"Default\",\"best_model_min_trees\":1,\"fstr_regular_file\":\"\"}",
      "params":
        {
          "boosting_options":
            {
              "approx_on_full_history":false,
              "boost_from_average":false,
              "boosting_type":"Plain",
              "fold_len_multiplier":2,
              "fold_permutation_block":0,
              "iterations":1000,
              "learning_rate":0.0072130002081394196,
              "model_shrink_mode":"Constant",
              "model_shrink_rate":0,
              "od_config":
                {
                  "stop_pvalue":0,
                  "type":"None",
                  "wait_iterations":20
                },
              "permutation_count":4,
              "posterior_sampling":false
            },
          "cat_feature_params":
            {
              "combinations_ctrs":
                [
                  {
                    "ctr_binarization":
                      {
                        "border_count":15,
                        "border_type":"Uniform"
                      },
                    "ctr_type":"Borders",
                    "prior_estimation":"No",
                    "priors":
                      [
                        [
                          0,
                          1
                        ],
                        [
                          0.5,
                          1
                        ],
                        [
                          1,
                          1
                        ]
                      ],
                    "target_binarization":
                      {
                        "border_count":1,
                        "border_type":"MinEntropy"
                      }
                  },
                  {
                    "ctr_binarization":
                      {
                        "border_count":15,
                        "border_type":"Uniform"
                      },
                    "ctr_type":"Counter",
                    "prior_estimation":"No",
                    "priors":
                      [
                        [
                          0,
                          1
                        ]
                      ]
                  }
                ],
              "counter_calc_method":"SkipTest",
              "ctr_leaf_count_limit":18446744073709551615,
              "max_ctr_complexity":4,
              "one_hot_max_size":2,
              "per_feature_ctrs":
                {
                },
              "simple_ctrs":
                [
                  {
                    "ctr_binarization":
                      {
                        "border_count":15,
                        "border_type":"Uniform"
                      },
                    "ctr_type":"Borders",
                    "prior_estimation":"No",
                    "priors":
                      [
                        [
                          0,
                          1
                        ],
                        [
                          0.5,
                          1
                        ],
                        [
                          1,
                          1
                        ]
                      ],
                    "target_binarization":
                      {
                        "border_count":1,
                        "border_type":"MinEntropy"
                      }
                  },
                  {
                    "ctr_binarization":
                      {
                        "border_count":15,
                        "border_type":"Uniform"
                      },
                    "ctr_type":"Counter",
                    "prior_estimation":"No",
                    "priors":
                      [
                        [
                          0,
                          1
                        ]
                      ]
                  }
                ],
              "store_all_simple_ctr":false,
              "target_binarization":
                {
                  "border_count":1,
                  "border_type":"MinEntropy"
                }
            },
          "data_processing_options":
            {
              "allow_const_label":false,
              "auto_class_weights":"None",
              "class_names":
                [
                  0,
                  1
                ],
              "class_weights":
                [
                ],
              "classes_count":0,
              "dev_default_value_fraction_for_sparse":0.82999998331069946,
              "dev_group_features":false,
              "dev_leafwise_scoring":false,
              "dev_sparse_array_indexing":"Indices",
              "float_features_binarization":
                {
                  "border_count":254,
                  "border_type":"GreedyLogSum",
                  "dev_max_subset_size_for_build_borders":200000,
                  "nan_mode":"Min"
                },
              "has_time":false,
              "ignored_features":
                [
                ],
              "per_float_feature_quantization":
                {
                },
              "target_border":null,
              "text_processing_options":
                {
                  "dictionaries":
                    [
                      {
                        "dictionary_id":"BiGram",
                        "end_of_sentence_token_policy":"Skip",
                        "end_of_word_token_policy":"Insert",
                        "gram_order":"2",
                        "max_dictionary_size":"50000",
                        "occurrence_lower_bound":"1",
                        "skip_step":"0",
                        "start_token_id":"0",
                        "token_level_type":"Word"
                      },
                      {
                        "dictionary_id":"Word",
                        "end_of_sentence_token_policy":"Skip",
                        "end_of_word_token_policy":"Insert",
                        "gram_order":"1",
                        "max_dictionary_size":"50000",
                        "occurrence_lower_bound":"1",
                        "skip_step":"0",
                        "start_token_id":"0",
                        "token_level_type":"Word"
                      }
                    ],
                  "feature_processing":
                    {
                      "default":
                        [
                          {
                            "dictionaries_names":
                              [
                                "BiGram",
                                "Word"
                              ],
                            "feature_calcers":
                              [
                                "BoW"
                              ],
                            "tokenizers_names":
                              [
                                "Space"
                              ]
                          },
                          {
                            "dictionaries_names":
                              [
                                "Word"
                              ],
                            "feature_calcers":
                              [
                                "NaiveBayes"
                              ],
                            "tokenizers_names":
                              [
                                "Space"
                              ]
                          }
                        ]
                    },
                  "tokenizers":
                    [
                      {
                        "delimiter":" ",
                        "languages":
                          [
                          ],
                        "lemmatizing":"0",
                        "lowercasing":"0",
                        "number_process_policy":"LeaveAsIs",
                        "number_token":"🔢",
                        "separator_type":"ByDelimiter",
                        "skip_empty":"1",
                        "split_by_set":"0",
                        "subtokens_policy":"SingleToken",
                        "token_types":
                          [
                            "Number",
                            "Unknown",
                            "Word"
                          ],
                        "tokenizer_id":"Space"
                      }
                    ]
                }
            },
          "detailed_profile":false,
          "flat_params":
            {
              "loss_function":"Logloss",
              "verbose":0
            },
          "logging_level":"Silent",
          "loss_function":
            {
              "params":
                {
                },
              "type":"Logloss"
            },
          "metadata":
            {
            },
          "metrics":
            {
              "custom_metrics":
                [
                ],
              "eval_metric":
                {
                  "params":
                    {
                    },
                  "type":"Logloss"
                },
              "objective_metric":
                {
                  "params":
                    {
                    },
                  "type":"Logloss"
                }
            },
          "pool_metainfo_options":
            {
              "tags":
                {
                }
            },
          "random_seed":0,
          "system_options":
            {
              "file_with_hosts":"hosts.txt",
              "node_port":0,
              "node_type":"SingleHost",
              "thread_count":16,
              "used_ram_limit":""
            },
          "task_type":"CPU",
          "tree_learner_options":
            {
              "bayesian_matrix_reg":0.10000000149011612,
              "bootstrap":
                {
                  "mvs_reg":null,
                  "subsample":0.80000001192092896,
                  "type":"MVS"
                },
              "depth":6,
              "dev_efb_max_buckets":1024,
              "dev_leafwise_approxes":false,
              "dev_score_calc_obj_block_size":5000000,
              "grow_policy":"SymmetricTree",
              "l2_leaf_reg":3,
              "leaf_estimation_backtracking":"AnyImprovement",
              "leaf_estimation_iterations":10,
              "leaf_estimation_method":"Newton",
              "max_leaves":64,
              "min_data_in_leaf":1,
              "model_size_reg":0.5,
              "monotone_constraints":
                {
                },
              "penalties":
                {
                  "feature_weights":
                    {
                    },
                  "first_feature_use_penalties":
                    {
                    },
                  "penalties_coefficient":1,
                  "per_object_feature_penalties":
                    {
                    }
                },
              "random_strength":1,
              "rsm":1,
              "sampling_frequency":"PerTree",
              "score_function":"Cosine",
              "sparse_features_conflict_fraction":0
            }
        },
      "train_finish_time":"2021-10-21T10:13:07Z"
    },
  "oblivious_trees":
    [
      {
        "leaf_values":
          [
            -0.01996037853995725,
            0,
            -0.005436776281720331,
            0,
            0,
            0,
            0,
            0,
            -0.03813794566858817,
            -0.0092544174077590444,
            -0.0083142684506979821,
            0.013298363108404902,
            0,
            0.016564421354068767,
            0,
            0.031001590010652374,
            0,
            0,
            0,
            0,
            0,
            0,
            0,
            0,
            0,
            0,
            0,
            0,
            0,
            0,
            0,
            0.035663195106574785,
            0,
            0,
            0,
            0,
            0,
            0,
            0,
            0,
            0,
            0,
            0,
            0,
            0,
            0,
            0,
            0.015099466607924061,
            0,
            0,
            0,
            0,
            0,
            0,
            0,
            0,
            0,
            0,
            0,
            0,
            0,
            0,
            0,
            0.029582512472872854
          ],
        "leaf_weights":
          [
            6,
            0,
            25,
            0,
            0,
            0,
            0,
            0,
            88,
            5,
            50,
            8,
            0,
            12,
            0,
            153,
            0,
            0,
            0,
            0,
            0,
            0,
            0,
            0,
            0,
            0,
            0,
            0,
            0,
            0,
            0,
            60,
            0,
            0,
            0,
            0,
            0,
            0,
            0,
            0,
            0,
            0,
            0,
            0,
            0,
            0,
            0,
            3,
            0,
            0,
            0,
            0,
            0,
            0,
            0,
            0,
            0,
            0,
            0,
            0,
            0,
            0,
            0,
            24
          ],
        "splits":
          [
            {
              "border":3.8314611911773682,
              "float_feature_index":2,
              "split_index":387,
              "split_type":"FloatFeature"
            },
            {
              "border":1.1577126315387432e-05,
              "float_feature_index":0,
              "split_index":46,
              "split_type":"FloatFeature"
            },
            {
              "border":5.3112764358520508,
              "float_feature_index":2,
              "split_index":394,
              "split_type":"FloatFeature"
            },
            {
              "border":1.3465572595596313,
              "float_feature_index":2,
              "split_index":315,
              "split_type":"FloatFeature"
            },
            {
              "border":74.87738037109375,
              "float_feature_index":2,
              "split_index":481,
              "split_type":"FloatFeature"
            },
            {
              "border":0.013138175010681152,
              "float_feature_index":0,
              "split_index":209,
              "split_type":"FloatFeature"
            }
          ]
      },
      {
        "leaf_values":
          [
            -0.024044776257384614,
            -0.0080943869938726026,
            0,
            0,
            0,
            0,
            0,
            0,
            -0.016032820343092155,
            0,
            0,
            0,
            0,
            0,
            0,
            0,
            0,
            0,
            0,
            0,
            0,
            0,
            0,
            0,
            0,
            0,
            0,
            0,
            0,
            0,
            0,
            0,
            -0.026331344127466828,
            -0.0071707318456840224,
            -0.026583253379489091,
            -0.0071743391938903318,
            0,
            0.016429309657931514,
            0,
            0.012012301237902536,
            0.013442812697166656,
            0.017089530410301323,
            0,
            0,
            0,
            0.030163529773666042,
            0,
            0.030710344773259055,
            0,
            0,
            0,
            0,
            0,
            0,
            0,
            0,
            0,
            0,
            0,
            0,
            0,
            0.0121923066635117,
            0,
            0.039668614441605687
          ],
        "leaf_weights":
          [
            11,
            1,
            0,
            0,
            0,
            0,
            0,
            0,
            31,
            0,
            0,
            0,
            0,
            0,
            0,
            0,
            0,
            0,
            0,
            0,
            0,
            0,
            0,
            0,
            0,
            0,
            0,
            0,
            0,
            0,
            0,
            0,
            83,
            15,
            16,
            4,
            0,
            12,
            0,
            13,
            15,
            4,
            0,
            0,
            0,
            27,
            0,
            84,
            0,
            0,
            0,
            0,
            0,
            0,
            0,
            0,
            0,
            0,
            0,
            0,
            0,
            2,
            0,
            116
          ],
        "splits":
          [
            {
              "border":3.269838809967041,
              "float_feature_index":2,
              "split_index":379,
              "split_type":"FloatFeature"
            },
            {
              "border":755.375244140625,
              "float_feature_index":3,
              "split_index":627,
              "split_type":"FloatFeature"
            },
            {
              "border":5.2201848030090332,
              "float_feature_index":2,
              "split_index":393,
              "split_type":"FloatFeature"
            },
            {
              "border":0.13278496265411377,
              "float_feature_index":1,
              "split_index":236,
              "split_type":"FloatFeature"
            },
            {
              "border":61.942554473876953,
              "float_feature_index":2,
              "split_index":466,
              "split_type":"FloatFeature"
            },
            {
              "border":3.4510631561279297,
              "float_feature_index":3,
              "split_index":536,
              "split_type":"FloatFeature"
            }
          ]
      },
      {
        "leaf_values":
          [
            -0.031850288051555584,
            0,
            0,
            0,
            -0.023315431320754278,
            0,
            0.007759069710604664,
            0.025037809338178132,
            0,
            0,
            0,
            0,
            0,
            0,
            0,
            0,
            -0.026404261955586084,
            0,
            0,
            0,
            -0.015010431413864243,
            0,
            0.011982101978976038,
            0.023886096252442254,
            0,
            0,
            0,
            0,
            0,
            0,
            0,
            0,
            -0.0045143583812944348,
            0,
            0,
            0,
            0.0080961337629244651,
            0,
            0.016917127477717609,
            0.022431377271563521,
            0.0060913739716851574,
            0,
            0,
            0,
            0.0080961337629244651,
            0,
            0.01205573492474403,
            0.020672533715406421,
            0,
            0,
            0,
            0,
            0,
            0,
            -0.0082855881178204548,
            0.035219973153019599,
            0,
            0,
            0,
            0,
            0,
            0,
            0,
            0.033873506052217423
          ],
        "leaf_weights":
          [
            101,
            0,
            0,
            0,
            10,
            0,
            12,
            13,
            0,
            0,
            0,
            0,
            0,
            0,
            0,
            0,
            16,
            0,
            0,
            0,
            3,
            0,
            7,
            11,
            0,
            0,
            0,
            0,
            0,
            0,
            0,
            0,
            29,
            0,
            0,
            0,
            1,
            0,
            4,
            9,
            10,
            0,
            0,
            0,
            1,
            0,
            2,
            7,
            0,
            0,
            0,
            0,
            0,
            0,
            1,
            60,
            0,
            0,
            0,
            0,
            0,
            0,
            0,
            137
          ],
        "splits":
          [
            {
              "border":7.2871580123901367,
              "float_feature_index":2,
              "split_index":403,
              "split_type":"FloatFeature"
            },
            {
              "border":3.8589053153991699,
              "float_feature_index":2,
              "split_index":388,
              "split_type":"FloatFeature"
            },
            {
              "border":3.269838809967041,
              "float_feature_index":2,
              "split_index":379,
              "split_type":"FloatFeature"
            },
            {
              "border":0.00070676312316209078,
              "float_feature_index":0,
              "split_index":141,
              "split_type":"FloatFeature"
            },
            {
              "border":712.0859375,
              "float_feature_index":3,
              "split_index":626,
              "split_type":"FloatFeature"
            },
            {
              "border":4.8960268031805754e-05,
              "float_feature_index":0,
              "split_index":82,
              "split_type":"FloatFeature"
            }
          ]
      },
      {
        "leaf_values":
          [
            -0.029348380664161736,
            0.012002378574999617,
            -0.0120296317179841,
            0,
            -0.021437687476915848,
            0.019291634951051413,
            -0.014733017101787026,
            0.012009861365590095,
            -0.0079342385338561361,
            0,
            0,
            0,
            0,
            0,
            0,
            0,
            0,
            0,
            0,
            0,
            0,
            0,
            0,
            0,
            0,
            0,
            0,
            0,
            0,
            0,
            0,
            0,
            0,
            0,
            -0.013948552896746005,
            0.014661334544468838,
            0,
            0,
            -0.0011322172837292146,
            0.020283150526613888,
            0,
            0,
            0.00043105993493234099,
            0.011959491368386446,
            0,
            0,
            0,
            0.035217282693183402,
            0,
            0,
            0,
            0,
            0,
            0,
            0,
            0,
            0,
            0,
            0,
            0,
            0,
            0,
            0,
            0.039526125810338909
          ],
        "leaf_weights":
          [
            73,
            2,
            2,
            0,
            45,
            18,
            3,
            2,
            1,
            0,
            0,
            0,
            0,
            0,
            0,
            0,
            0,
            0,
            0,
            0,
            0,
            0,
            0,
            0,
            0,
            0,
            0,
            0,
            0,
            0,
            0,
            0,
            0,
            0,
            9,
            3,
            0,
            0,
            11,
            39,
            0,
            0,
            39,
            2,
            0,
            0,
            0,
            62,
            0,
            0,
            0,
            0,
            0,
            0,
            0,
            0,
            0,
            0,
            0,
            0,
            0,
            0,
            0,
            123
          ],
        "splits":
          [
            {
              "border":5.3389177322387695,
              "float_feature_index":2,
              "split_index":395,
              "split_type":"FloatFeature"
            },
            {
              "border":1.9206090655643493e-05,
              "float_feature_index":0,
              "split_index":62,
              "split_type":"FloatFeature"
            },
            {
              "border":125.24081420898438,
              "float_feature_index":3,
              "split_index":587,
              "split_type":"FloatFeature"
            },
            {
              "border":0.38149690628051758,
              "float_feature_index":1,
              "split_index":255,
              "split_type":"FloatFeature"
            },
            {
              "border":59.186164855957031,
              "float_feature_index":2,
              "split_index":464,
              "split_type":"FloatFeature"
            },
            {
              "border":2.2935266315471381e-05,
              "float_feature_index":0,
              "split_index":66,
              "split_type":"FloatFeature"
            }
          ]
      },
      {
        "leaf_values":
          [
            -0.026006191426846428,
            0,
            -0.0097902713303466959,
            0,
            -0.029782291790614954,
            0,
            -0.0020887502264265822,
            0,
            0,
            0,
            0,
            0,
            0,
            0,
            0,
            0,
            -0.023434790616618552,
            -0.0079863982630089588,
            -0.0053273946376280962,
            0,
            -0.032548860435592075,
            0.012452005822161232,
            -0.0075406973918163344,
            0.02398231998030555,
            0,
            0,
            0,
            0,
            0,
            0,
            0,
            0.037366805462412937,
            0,
            0,
            0,
            0,
            0,
            0,
            0,
            0,
            0,
            0,
            0,
            0,
            0,
            0,
            0,
            0,
            0,
            0,
            0,
            0,
            0,
            0,
            0,
            0,
            0,
            0,
            0,
            0,
            0,
            0,
            0,
            0.034746567245163201
          ],
        "leaf_weights":
          [
            16,
            0,
            30,
            0,
            28,
            0,
            12,
            0,
            0,
            0,
            0,
            0,
            0,
            0,
            0,
            0,
            11,
            1,
            16,
            0,
            42,
            14,
            16,
            96,
            0,
            0,
            0,
            0,
            0,
            0,
            0,
            91,
            0,
            0,
            0,
            0,
            0,
            0,
            0,
            0,
            0,
            0,
            0,
            0,
            0,
            0,
            0,
            0,
            0,
            0,
            0,
            0,
            0,
            0,
            0,
            0,
            0,
            0,
            0,
            0,
            0,
            0,
            0,
            61
          ],
        "splits":
          [
            {
              "border":3.8589053153991699,
              "float_feature_index":2,
              "split_index":388,
              "split_type":"FloatFeature"
            },
            {
              "border":1.1740017725969665e-05,
              "float_feature_index":0,
              "split_index":47,
              "split_type":"FloatFeature"
            },
            {
              "border":9.6413164138793945,
              "float_feature_index":3,
              "split_index":554,
              "split_type":"FloatFeature"
            },
            {
              "border":48.004562377929688,
              "float_feature_index":2,
              "split_index":451,
              "split_type":"FloatFeature"
            },
            {
              "border":1.9081673622131348,
              "float_feature_index":2,
              "split_index":345,
              "split_type":"FloatFeature"
            },
            {
              "border":82.104248046875,
              "float_feature_index":2,
              "split_index":490,
              "split_type":"FloatFeature"
            }
          ]
      },
      {
        "leaf_values":
          [
            -0.021323241021468771,
            -0.0082597607690379389,
            0,
            0,
            -0.016256605976585393,
            0.0091909616571040405,
            0,
            0,
            0,
            0,
            0,
            0,
            0,
            0,
            0,
            0,
            0,
            0,
            0,
            0,
            -0.0075670100151233191,
            0,
            0,
            0,
            0,
            0,
            0,
            0,
            -0.0078016158734084268,
            0,
            0,
            0,
            0,
            0,
            0,
            0,
            0,
            0,
            0,
            0,
            0,
            0,
            0,
            0,
            0,
            0,
            0,
            0,
            -0.027504161599670011,
            -0.014003024167520625,
            0,
            0,
            -0.033225414098228601,
            0.024216232974201831,
            0.011611302107792321,
            0.019238672968910783,
            0,
            0,
            0,
            0,
            -0.021782576978414514,
            0.0045127420237762233,
            0.018480739973583588,
            0.032209858510991528
          ],
        "leaf_weights":
          [
            8,
            17,
            0,
            0,
            4,
            5,
            0,
            0,
            0,
            0,
            0,
            0,
            0,
            0,
            0,
            0,
            0,
            0,
            0,
            0,
            1,
            0,
            0,
            0,
            0,
            0,
            0,
            0,
            1,
            0,
            0,
            0,
            0,
            0,
            0,
            0,
            0,
            0,
            0,
            0,
            0,
            0,
            0,
            0,
            0,
            0,
            0,
            0,
            20,
            9,
            0,
            0,
            48,
            11,
            7,
            6,
            0,
            0,
            0,
            0,
            49,
            3,
            31,
            214
          ],
        "splits":
          [
            {
              "border":4.001680645160377e-05,
              "float_feature_index":0,
              "split_index":80,
              "split_type":"FloatFeature"
            },
            {
              "border":4.383054256439209,
              "float_feature_index":2,
              "split_index":391,
              "split_type":"FloatFeature"
            },
            {
              "border":4.2098841667175293,
              "float_feature_index":3,
              "split_index":542,
              "split_type":"FloatFeature"
            },
            {
              "border":138.62277221679688,
              "float_feature_index":3,
              "split_index":590,
              "split_type":"FloatFeature"
            },
            {
              "border":1.3977937698364258,
              "float_feature_index":2,
              "split_index":317,
              "split_type":"FloatFeature"
            },
            {
              "border":1.4203565120697021,
              "float_feature_index":2,
              "split_index":318,
              "split_type":"FloatFeature"
            }
          ]
      },
      {
        "leaf_values":
          [
            -0.036891305118696961,
            0.0033242182829846525,
            0,
            0.014350690168290534,
            -0.0052471438550540988,
            0.016463385687960796,
            0,
            0.021029291278765828,
            0,
            0,
            0,
            0,
            0,
            0,
            0,
            0,
            0,
            0,
            0,
            0,
            0.0070136305684821831,
            0.011552235483625649,
            0,
            0.011541990410459687,
            0,
            0,
            0,
            0,
            0,
            0,
            0,
            0,
            -0.02902703643051973,
            0.0067294197859149897,
            0,
            0.020279129180712781,
            -0.020531901916057041,
            0.0088109913903507992,
            0,
            0.035733194476612003,
            0,
            0,
            0,
            0,
            0,
            0,
            0,
            0,
            0,
            0,
            0,
            0,
            0,
            0,
            0,
            0.032130069760080447,
            0,
            0,
            0,
            0,
            0,
            0,
            0,
            0.026204414100353648
          ],
        "leaf_weights":
          [
            87,
            8,
            0,
            3,
            38,
            4,
            0,
            8,
            0,
            0,
            0,
            0,
            0,
            0,
            0,
            0,
            0,
            0,
            0,
            0,
            11,
            2,
            0,
            2,
            0,
            0,
            0,
            0,
            0,
            0,
            0,
            0,
            26,
            11,
            0,
            7,
            7,
            5,
            0,
            74,
            0,
            0,
            0,
            0,
            0,
            0,
            0,
            0,
            0,
            0,
            0,
            0,
            0,
            0,
            0,
            123,
            0,
            0,
            0,
            0,
            0,
            0,
            0,
            18
          ],
        "splits":
          [
            {
              "border":3.8314611911773682,
              "float_feature_index":2,
              "split_index":387,
              "split_type":"FloatFeature"
            },
            {
              "border":7.5872678756713867,
              "float_feature_index":2,
              "split_index":404,
              "split_type":"FloatFeature"
            },
            {
              "border":2.0010429579997435e-05,
              "float_feature_index":0,
              "split_index":64,
              "split_type":"FloatFeature"
            },
            {
              "border":91.5347900390625,
              "float_feature_index":2,
              "split_index":504,
              "split_type":"FloatFeature"
            },
            {
              "border":0.00071328558260574937,
              "float_feature_index":0,
              "split_index":142,
              "split_type":"FloatFeature"
            },
            {
              "border":293.49710083007813,
              "float_feature_index":3,
              "split_index":606,
              "split_type":"FloatFeature"
            }
          ]
      },
      {
        "leaf_values":
          [
            -0.0074461461789730151,
            0,
            0,
            0,
            -0.033007094179357474,
            0.0076632317244367766,
            0,
            0,
            0,
            0,
            0,
            0,
            0,
            0,
            0,
            0,
            0,
            0,
            0,
            0,
            -0.01874856552778013,
            0,
            0,
            0,
            0,
            0,
            0,
            0,
            0,
            0,
            0,
            0,
            -0.011671798874924299,
            0,
            0,
            0,
            -0.021791019512369898,
            0.013636186866893114,
            0,
            0,
            -0.011962487353336606,
            0,
            -0.01557750544218812,
            0,
            -0.0031523842580778155,
            0.031832067645892963,
            0.0049796814777596145,
            0.023981859236594242,
            0,
            0,
            0,
            0,
            -0.01420317083383903,
            0.016284174887944911,
            0,
            0,
            0,
            0,
            0,
            0,
            -0.0077215072145043586,
            0.024830016072287117,
            0,
            0.03697371127987311
          ],
        "leaf_weights":
          [
            1,
            0,
            0,
            0,
            50,
            1,
            0,
            0,
            0,
            0,
            0,
            0,
            0,
            0,
            0,
            0,
            0,
            0,
            0,
            0,
            6,
            0,
            0,
            0,
            0,
            0,
            0,
            0,
            0,
            0,
            0,
            0,
            2,
            0,
            0,
            0,
            52,
            17,
            0,
            0,
            2,
            0,
            11,
            0,
            37,
            41,
            15,
            13,
            0,
            0,
            0,
            0,
            3,
            4,
            0,
            0,
            0,
            0,
            0,
            0,
            1,
            82,
            0,
            96
          ],
        "splits":
          [
            {
              "border":5.2201848030090332,
              "float_feature_index":2,
              "split_index":393,
              "split_type":"FloatFeature"
            },
            {
              "border":0.73443007469177246,
              "float_feature_index":1,
              "split_index":279,
              "split_type":"FloatFeature"
            },
            {
              "border":1.683236837387085,
              "float_feature_index":3,
              "split_index":520,
              "split_type":"FloatFeature"
            },
            {
              "border":1.7880540326586924e-05,
              "float_feature_index":0,
              "split_index":60,
              "split_type":"FloatFeature"
            },
            {
              "border":3043.111328125,
              "float_feature_index":3,
              "split_index":647,
              "split_type":"FloatFeature"
            },
            {
              "border":2.9972845823067473e-06,
              "float_feature_index":0,
              "split_index":18,
              "split_type":"FloatFeature"
            }
          ]
      },
      {
        "leaf_values":
          [
            -0.021746571894930726,
            0.016438939490547293,
            0,
            0,
            -0.0076937911903249548,
            -0.00087869894203253859,
            0,
            0,
            -0.0035765549061944528,
            0.033921311768105027,
            0,
            0.022452312407430928,
            0,
            0.021205597047574788,
            0,
            0.022996286352182545,
            0,
            0,
            0,
            0,
            0,
            0,
            0,
            0,
            -0.0079768774258068744,
            0.01115619566661887,
            0,
            0.0071601432725416749,
            0,
            0,
            0,
            0.018213717570004919,
            0,
            0,
            0,
            0,
            0,
            0,
            0,
            0,
            0,
            0,
            0,
            0,
            0,
            0,
            0,
            0,
            0,
            0,
            0,
            0,
            0,
            0,
            0,
            0,
            0.010800189660092845,
            0.024309523132719616,
            0,
            0.024537015224437322,
            0,
            0.011546445923653156,
            0,
            0.035723699584455759
          ],
        "leaf_weights":
          [
            130,
            37,
            0,
            0,
            1,
            2,
            0,
            0,
            38,
            59,
            0,
            11,
            0,
            9,
            0,
            12,
            0,
            0,
            0,
            0,
            0,
            0,
            0,
            0,
            1,
            2,
            0,
            1,
            0,
            0,
            0,
            6,
            0,
            0,
            0,
            0,
            0,
            0,
            0,
            0,
            0,
            0,
            0,
            0,
            0,
            0,
            0,
            0,
            0,
            0,
            0,
            0,
            0,
            0,
            0,
            0,
            6,
            14,
            0,
            15,
            0,
            8,
            0,
            82
          ],
        "splits":
          [
            {
              "border":4.383054256439209,
              "float_feature_index":2,
              "split_index":391,
              "split_type":"FloatFeature"
            },
            {
              "border":56.986579895019531,
              "float_feature_index":2,
              "split_index":462,
              "split_type":"FloatFeature"
            },
            {
              "border":16179.578125,
              "float_feature_index":3,
              "split_index":687,
              "split_type":"FloatFeature"
            },
            {
              "border":0.19909502565860748,
              "float_feature_index":1,
              "split_index":241,
              "split_type":"FloatFeature"
            },
            {
              "border":0.0010561873205006123,
              "float_feature_index":0,
              "split_index":154,
              "split_type":"FloatFeature"
            },
            {
              "border":0.0013112485175952315,
              "float_feature_index":0,
              "split_index":160,
              "split_type":"FloatFeature"
            }
          ]
      },
      {
        "leaf_values":
          [
            -0.031390998846239068,
            0.007371313336911562,
            0,
            0,
            0,
            0,
            0,
            0,
            0,
            0,
            0,
            0,
            0,
            0,
            0,
            0,
            0,
            0,
            0,
            0,
            0,
            0,
            0,
            0,
            0,
            0,
            0,
            0,
            0,
            0,
            0,
            0,
            -0.010925831747717567,
            0.011880870528068445,
            0,
            0,
            -0.017526521832828931,
            0.023857158448454381,
            0,
            0,
            0,
            0,
            0,
            0,
            -0.002379543507466708,
            0.032692596653381804,
            -0.0016168984768787306,
            0.026420746509787148,
            0,
            0,
            0,
            0,
            0,
            0,
            0,
            0,
            0,
            0,
            0,
            0,
            0,
            0.031018642534115341,
            0,
            0.023318122764220486
          ],
        "leaf_weights":
          [
            114,
            20,
            0,
            0,
            0,
            0,
            0,
            0,
            0,
            0,
            0,
            0,
            0,
            0,
            0,
            0,
            0,
            0,
            0,
            0,
            0,
            0,
            0,
            0,
            0,
            0,
            0,
            0,
            0,
            0,
            0,
            0,
            7,
            14,
            0,
            0,
            5,
            13,
            0,
            0,
            0,
            0,
            0,
            0,
            27,
            144,
            16,
            20,
            0,
            0,
            0,
            0,
            0,
            0,
            0,
            0,
            0,
            0,
            0,
            0,
            0,
            41,
            0,
            13
          ],
        "splits":
          [
            {
              "border":3.8314611911773682,
              "float_feature_index":2,
              "split_index":387,
              "split_type":"FloatFeature"
            },
            {
              "border":0.91534179449081421,
              "float_feature_index":1,
              "split_index":292,
              "split_type":"FloatFeature"
            },
            {
              "border":0.13278496265411377,
              "float_feature_index":1,
              "split_index":236,
              "split_type":"FloatFeature"
            },
            {
              "border":0.2138773500919342,
              "float_feature_index":1,
              "split_index":243,
              "split_type":"FloatFeature"
            },
            {
              "border":133535.21875,
              "float_feature_index":3,
              "split_index":722,
              "split_type":"FloatFeature"
            },
            {
              "border":0.079002082347869873,
              "float_feature_index":1,
              "split_index":230,
              "split_type":"FloatFeature"
            }
          ]
      },
      {
        "leaf_values":
          [
            -0.025990246238697237,
            0,
            0,
            0,
            -0.013880225969565559,
            0,
            0,
            0,
            -0.0038469807292902396,
            0,
            0,
            0,
            0,
            0,
            0,
            0,
            -0.028344175816758025,
            0,
            -0.023296572619136469,
            0.012170168133919908,
            -0.017904780180379696,
            0,
            -0.015031560593897262,
            0.016465023298090138,
            -0.004125678828185082,
            0,
            0.010650064259292298,
            0.017232907377627758,
            0,
            0,
            0,
            0.039277954308616941,
            0,
            0,
            0,
            0,
            0,
            0,
            0,
            0,
            -0.0080102264229146656,
            0,
            0,
            0,
            0,
            0,
            0,
            0,
            0,
            0,
            0,
            0,
            0,
            0,
            0,
            0,
            0,
            0,
            0,
            0,
            0,
            0,
            0,
            0.030817329582902731
          ],
        "leaf_weights":
          [
            18,
            0,
            0,
            0,
            3,
            0,
            0,
            0,
            25,
            0,
            0,
            0,
            0,
            0,
            0,
            0,
            27,
            0,
            37,
            8,
            18,
            0,
            33,
            53,
            3,
            0,
            11,
            5,
            0,
            0,
            0,
            151,
            0,
            0,
            0,
            0,
            0,
            0,
            0,
            0,
            1,
            0,
            0,
            0,
            0,
            0,
            0,
            0,
            0,
            0,
            0,
            0,
            0,
            0,
            0,
            0,
            0,
            0,
            0,
            0,
            0,
            0,
            0,
            41
          ],
        "splits":
          [
            {
              "border":4.383054256439209,
              "float_feature_index":2,
              "split_index":391,
              "split_type":"FloatFeature"
            },
            {
              "border":1.921442985534668,
              "float_feature_index":2,
              "split_index":351,
              "split_type":"FloatFeature"
            },
            {
              "border":131.84042358398438,
              "float_feature_index":3,
              "split_index":589,
              "split_type":"FloatFeature"
            },
            {
              "border":0.33913719654083252,
              "float_feature_index":1,
              "split_index":253,
              "split_type":"FloatFeature"
            },
            {
              "border":1.5418438911437988,
              "float_feature_index":2,
              "split_index":323,
              "split_type":"FloatFeature"
            },
            {
              "border":0.0082010272890329361,
              "float_feature_index":0,
              "split_index":201,
              "split_type":"FloatFeature"
            }
          ]
      },
      {
        "leaf_values":
          [
            -0.024640585971251811,
            0,
            0,
            0,
            0,
            0,
            0,
            0,
            -0.014601812606605152,
            0,
            0.0025480500080111083,
            0,
            0,
            0,
            -0.0079811349983364092,
            0,
            0,
            0,
            0,
            0,
            0,
            0,
            0,
            0,
            0,
            0,
            0,
            0,
            0,
            0,
            0,
            0,
            -0.024018880474745784,
            0.0092797459140339499,
            -0.0078713295861526367,
            0.0023750394590883505,
            0,
            0,
            0,
            0,
            0.0049974240881428614,
            0.011231567546119425,
            0.016898634844160387,
            0.018188999262972048,
            0,
            0,
            0,
            0.0070918267270917695,
            0,
            0.02641537369316321,
            0,
            0.024156980487045815,
            0,
            0,
            0,
            0,
            0,
            0.01651312009490662,
            0,
            0.03661419236465429,
            0,
            0,
            0,
            0.032142455809169745
          ],
        "leaf_weights":
          [
            15,
            0,
            0,
            0,
            0,
            0,
            0,
            0,
            10,
            0,
            12,
            0,
            0,
            0,
            1,
            0,
            0,
            0,
            0,
            0,
            0,
            0,
            0,
            0,
            0,
            0,
            0,
            0,
            0,
            0,
            0,
            0,
            114,
            62,
            1,
            3,
            0,
            0,
            0,
            0,
            6,
            2,
            4,
            6,
            0,
            0,
            0,
            1,
            0,
            21,
            0,
            15,
            0,
            0,
            0,
            0,
            0,
            5,
            0,
            104,
            0,
            0,
            0,
            52
          ],
        "splits":
          [
            {
              "border":3.6624879837036133,
              "float_feature_index":2,
              "split_index":383,
              "split_type":"FloatFeature"
            },
            {
              "border":0.00028444707277230918,
              "float_feature_index":0,
              "split_index":117,
              "split_type":"FloatFeature"
            },
            {
              "border":0.0059321545995771885,
              "float_feature_index":0,
              "split_index":196,
              "split_type":"FloatFeature"
            },
            {
              "border":0.49324324727058411,
              "float_feature_index":1,
              "split_index":262,
              "split_type":"FloatFeature"
            },
            {
              "border":24.326034545898438,
              "float_feature_index":2,
              "split_index":429,
              "split_type":"FloatFeature"
            },
            {
              "border":1.4297382831573486,
              "float_feature_index":2,
              "split_index":320,
              "split_type":"FloatFeature"
            }
          ]
      },
      {
        "leaf_values":
          [
            -0.02961274104815478,
            -0.0077053907520755896,
            -0.023478135066211436,
            0.0097434582028539107,
            0,
            0,
            0,
            0,
            0,
            0,
            -0.021628183054574215,
            0.017589702602943697,
            0,
            0,
            -0.027108437193106391,
            0.011530658746944327,
            -0.0070928672180379316,
            0,
            0.015607968351493411,
            0.017196701004939564,
            0,
            0,
            0,
            0,
            0,
            0,
            0,
            0.021426232081654183,
            0,
            0,
            0,
            0.037357257139743687,
            0,
            0,
            0,
            0,
            0,
            0,
            0,
            0,
            0,
            0,
            0,
            0,
            0,
            0,
            0,
            0.011129401218434221,
            0,
            0,
            0,
            0,
            0,
            0,
            0,
            0,
            0,
            0,
            0,
            0,
            0,
            0,
            0,
            0.033725473397024093
          ],
        "leaf_weights":
          [
            33,
            1,
            41,
            6,
            0,
            0,
            0,
            0,
            0,
            0,
            31,
            16,
            0,
            0,
            22,
            36,
            31,
            0,
            11,
            5,
            0,
            0,
            0,
            0,
            0,
            0,
            0,
            10,
            0,
            0,
            0,
            120,
            0,
            0,
            0,
            0,
            0,
            0,
            0,
            0,
            0,
            0,
            0,
            0,
            0,
            0,
            0,
            2,
            0,
            0,
            0,
            0,
            0,
            0,
            0,
            0,
            0,
            0,
            0,
            0,
            0,
            0,
            0,
            69
          ],
        "splits":
          [
            {
              "border":3.8314611911773682,
              "float_feature_index":2,
              "split_index":387,
              "split_type":"FloatFeature"
            },
            {
              "border":6.2386074066162109,
              "float_feature_index":3,
              "split_index":549,
              "split_type":"FloatFeature"
            },
            {
              "border":430.46343994140625,
              "float_feature_index":3,
              "split_index":619,
              "split_type":"FloatFeature"
            },
            {
              "border":110.22018432617188,
              "float_feature_index":3,
              "split_index":585,
              "split_type":"FloatFeature"
            },
            {
              "border":0.29570746421813965,
              "float_feature_index":1,
              "split_index":248,
              "split_type":"FloatFeature"
            },
            {
              "border":75823.59375,
              "float_feature_index":3,
              "split_index":712,
              "split_type":"FloatFeature"
            }
          ]
      },
      {
        "leaf_values":
          [
            -0.029166215998632217,
            0.0094647565022187175,
            0,
            0,
            0,
            0,
            0,
            0,
            -0.0091375895615725244,
            0.027191358155900937,
            -0.010297356425304202,
            0.0067720412784079446,
            0,
            0,
            0,
            0,
            0,
            0,
            0,
            0,
            0,
            0,
            0,
            0,
            0.012108323089799377,
            0.024536415799462946,
            0.0049066463931675026,
            0.03059088174345306,
            0,
            0,
            0,
            0,
            0,
            0,
            0,
            0,
            0,
            0,
            0,
            0,
            0,
            0,
            0,
            0,
            0,
            0,
            0,
            0,
            0,
            0,
            0,
            0,
            0,
            0,
            0,
            0,
            0,
            0.012721784080607165,
            0.0079204874489165623,
            0.015942740334464044,
            0,
            0.022551706945936896,
            -0.0079264786278671149,
            0.032481861417473466
          ],
        "leaf_weights":
          [
            93,
            11,
            0,
            0,
            0,
            0,
            0,
            0,
            58,
            68,
            11,
            1,
            0,
            0,
            0,
            0,
            0,
            0,
            0,
            0,
            0,
            0,
            0,
            0,
            2,
            52,
            12,
            44,
            0,
            0,
            0,
            0,
            0,
            0,
            0,
            0,
            0,
            0,
            0,
            0,
            0,
            0,
            0,
            0,
            0,
            0,
            0,
            0,
            0,
            0,
            0,
            0,
            0,
            0,
            0,
            0,
            0,
            3,
            1,
            5,
            0,
            13,
            1,
            59
          ],
        "splits":
          [
            {
              "border":4.9130964279174805,
              "float_feature_index":2,
              "split_index":392,
              "split_type":"FloatFeature"
            },
            {
              "border":0.74456524848937988,
              "float_feature_index":1,
              "split_index":280,
              "split_type":"FloatFeature"
            },
            {
              "border":0.0037685534916818142,
              "float_feature_index":0,
              "split_index":188,
              "split_type":"FloatFeature"
            },
            {
              "border":9.5305040304083377e-06,
              "float_feature_index":0,
              "split_index":42,
              "split_type":"FloatFeature"
            },
            {
              "border":0.00031617452623322606,
              "float_feature_index":0,
              "split_index":121,
              "split_type":"FloatFeature"
            },
            {
              "border":0.0032563749700784683,
              "float_feature_index":0,
              "split_index":183,
              "split_type":"FloatFeature"
            }
          ]
      },
      {
        "leaf_values":
          [
            -0.021968373719992856,
            0,
            -0.025000675677537079,
            0,
            -0.019632626817937548,
            0.014630160903744424,
            0.0093134486887806525,
            0.028785292053122091,
            0,
            0,
            0,
            0,
            -0.015514704900551679,
            0.0057090007109252801,
            0,
            0.0097795435096698392,
            0,
            0,
            0,
            0,
            0,
            0,
            0,
            0.026001111732967035,
            0,
            0,
            0,
            0,
            0,
            0,
            0,
            0.030580697838411934,
            0,
            0,
            -0.010493555485751302,
            0,
            0,
            0,
            0.017312504449054189,
            0.0187026359884109,
            0,
            0,
            0,
            0,
            0,
            0,
            0,
            0,
            0,
            0,
            0,
            0,
            0,
            0,
            0,
            0.024172674803296001,
            0,
            0,
            0,
            0,
            0,
            0,
            0,
            0.0358725017307049
          ],
        "leaf_weights":
          [
            11,
            0,
            15,
            0,
            112,
            21,
            5,
            30,
            0,
            0,
            0,
            0,
            4,
            4,
            0,
            7,
            0,
            0,
            0,
            0,
            0,
            0,
            0,
            22,
            0,
            0,
            0,
            0,
            0,
            0,
            0,
            44,
            0,
            0,
            17,
            0,
            0,
            0,
            14,
            7,
            0,
            0,
            0,
            0,
            0,
            0,
            0,
            0,
            0,
            0,
            0,
            0,
            0,
            0,
            0,
            17,
            0,
            0,
            0,
            0,
            0,
            0,
            0,
            104
          ],
        "splits":
          [
            {
              "border":4.9130964279174805,
              "float_feature_index":2,
              "split_index":392,
              "split_type":"FloatFeature"
            },
            {
              "border":0.11651583760976791,
              "float_feature_index":1,
              "split_index":234,
              "split_type":"FloatFeature"
            },
            {
              "border":3.4510631561279297,
              "float_feature_index":3,
              "split_index":536,
              "split_type":"FloatFeature"
            },
            {
              "border":5451.595703125,
              "float_feature_index":3,
              "split_index":663,
              "split_type":"FloatFeature"
            },
            {
              "border":30.02580451965332,
              "float_feature_index":2,
              "split_index":434,
              "split_type":"FloatFeature"
            },
            {
              "border":0.66476094722747803,
              "float_feature_index":1,
              "split_index":274,
              "split_type":"FloatFeature"
            }
          ]
      },
      {
        "leaf_values":
          [
            -0.0066893595469227048,
            0,
            0,
            0,
            0,
            0,
            0,
            0,
            0,
            0,
            0,
            0,
            0,
            0,
            0,
            0,
            -0.018225549579694651,
            0,
            0,
            0,
            0,
            0,
            0,
            0,
            0,
            0,
            0,
            0,
            -0.016327781535496629,
            0,
            0,
            0,
            -0.025943912845897765,
            0,
            -0.025920472053977569,
            0,
            0,
            0,
            0,
            0,
            0,
            0,
            0,
            0,
            0,
            0,
            0,
            0,
            -0.015103259747650548,
            0.015507143897708792,
            -0.0094879257659624856,
            0.016151423368331311,
            0,
            0,
            0,
            0,
            -0.0070255262339071036,
            0,
            0,
            0,
            0.012638551444581507,
            0.023828562166141494,
            0,
            0.033553202929253345
          ],
        "leaf_weights":
          [
            1,
            0,
            0,
            0,
            0,
            0,
            0,
            0,
            0,
            0,
            0,
            0,
            0,
            0,
            0,
            0,
            6,
            0,
            0,
            0,
            0,
            0,
            0,
            0,
            0,
            0,
            0,
            0,
            24,
            0,
            0,
            0,
            62,
            0,
            20,
            0,
            0,
            0,
            0,
            0,
            0,
            0,
            0,
            0,
            0,
            0,
            0,
            0,
            37,
            13,
            6,
            27,
            0,
            0,
            0,
            0,
            1,
            0,
            0,
            0,
            21,
            15,
            0,
            201
          ],
        "splits":
          [
            {
              "border":4.9130964279174805,
              "float_feature_index":2,
              "split_index":392,
              "split_type":"FloatFeature"
            },
            {
              "border":387.3929443359375,
              "float_feature_index":3,
              "split_index":616,
              "split_type":"FloatFeature"
            },
            {
              "border":0.2138773500919342,
              "float_feature_index":1,
              "split_index":243,
              "split_type":"FloatFeature"
            },
            {
              "border":0.20871040225028992,
              "float_feature_index":1,
              "split_index":242,
              "split_type":"FloatFeature"
            },
            {
              "border":0.033723525702953339,
              "float_feature_index":1,
              "split_index":224,
              "split_type":"FloatFeature"
            },
            {
              "border":2.4451045989990234,
              "float_feature_index":3,
              "split_index":529,
              "split_type":"FloatFeature"
            }
          ]
      },
      {
        "leaf_values":
          [
            -0.010325278766967242,
            0,
            -0.01938797645869221,
            0,
            0,
            0,
            0,
            0,
            0,
            0,
            0,
            0,
            0,
            0,
            0,
            0,
            0,
            0,
            -0.0055811773937044567,
            0,
            0,
            0,
            0,
            0,
            0,
            0,
            0,
            0,
            0,
            0,
            0,
            0,
            -0.024986864182186024,
            0,
            -0.02809082582934282,
            0.0014194275678640757,
            0,
            0,
            0,
            0,
            0,
            0,
            0,
            0.017194622116157347,
            0,
            0,
            0,
            0,
            0,
            0,
            -0.0010602871247759678,
            0.012836899302461879,
            0,
            0,
            0,
            0,
            0,
            0,
            0,
            0.028585713813003528,
            0,
            0,
            0,
            0.033356417179362489
          ],
        "leaf_weights":
          [
            2,
            0,
            8,
            0,
            0,
            0,
            0,
            0,
            0,
            0,
            0,
            0,
            0,
            0,
            0,
            0,
            0,
            0,
            27,
            0,
            0,
            0,
            0,
            0,
            0,
            0,
            0,
            0,
            0,
            0,
            0,
            0,
            19,
            0,
            84,
            25,
            0,
            0,
            0,
            0,
            0,
            0,
            0,
            5,
            0,
            0,
            0,
            0,
            0,
            0,
            23,
            9,
            0,
            0,
            0,
            0,
            0,
            0,
            0,
            30,
            0,
            0,
            0,
            202
          ],
        "splits":
          [
            {
              "border":3.6624879837036133,
              "float_feature_index":2,
              "split_index":383,
              "split_type":"FloatFeature"
            },
            {
              "border":1.0108965398103464e-06,
              "float_feature_index":0,
              "split_index":6,
