{
  "features_info":
    {
      "cat_features_hash":null,
      "float_features":
        [
          {
            "borders":
              [
                0.0072463769465684891,
                0.016861762851476669,
                0.024108137935400009,
                0.033723525702953339,
                0.040969900786876678,
                0.050585284829139709,
                0.067307695746421814,
                0.086538463830947876,
                0.10576923191547394,
                0.12290969491004944,
                0.15175585448741913,
                0.18269231915473938,
                0.20192307233810425,
                0.24038462340831757,
                0.28846156597137451,
                0.31730771064758301,
                0.35576921701431274,
                0.39423078298568726,
                0.44105350971221924,
                0.47951504588127136,
                0.50961542129516602,
                0.5735785961151123,
                0.6312708854675293,
                0.67307692766189575,
                0.70192307233810425,
                0.72533440589904785,
                0.74456524848937988,
                0.79807692766189575,
                0.85576927661895752,
                0.875,
                0.92307686805725098,
                0.98076921701431274
              ],
            "feature_index":0,
            "flat_feature_index":0,
            "has_nans":false,
            "nan_value_treatment":"AsIs"
          },
          {
            "borders":
              [
                0.44913631677627563,
                0.92218005657196045,
                0.95075762271881104,
                0.96816778182983398,
                0.9855034351348877,
                0.99012219905853271,
                0.99019050598144531,
                0.99039936065673828,
                0.99132251739501953,
                0.99692279100418091,
                1.00636887550354,
                1.0509357452392578,
                1.0914480686187744,
                1.0961921215057373,
                1.1186678409576416,
                1.1396030187606812,
                1.1442763805389404,
                1.1574256420135498,
                1.2188565731048584,
                1.2754440307617188,
                1.3017722368240356,
                1.3465572595596313,
                1.3744399547576904,
                1.3918824195861816,
                1.4122791290283203,
                1.4236845970153809,
                1.4297382831573486,
                1.4398783445358276,
                1.4517955780029297,
                1.458155632019043,
                1.4817380905151367,
                1.5129694938659668,
                1.5324094295501709,
                1.5418438911437988,
                1.5455818176269531,
                1.5633543729782104,
                1.583649754524231,
                1.5942826271057129,
                1.6125028133392334,
                1.6403369903564453,
                1.6585071086883545,
                1.6612594127655029,
                1.6839015483856201,
                1.7236735820770264,
                1.7502211332321167,
                1.7614215612411499,
                1.787402868270874,
                1.8115921020507813,
                1.8215715885162354,
                1.8348703384399414,
                1.8382368087768555,
                1.8415781259536743,
                1.8483937978744507,
                1.8520486354827881,
                1.854379415512085,
                1.8612511157989502,
                1.8659815788269043,
                1.8685469627380371,
                1.873558521270752,
                1.8778629302978516,
                1.8826568126678467,
                1.8861966133117676,
                1.886884331703186,
                1.8869966268539429,
                1.8905375003814697,
                1.8954863548278809,
                1.8990792036056519,
                1.9012551307678223,
                1.9023342132568359,
                1.9056704044342041,
                1.9081673622131348,
                1.9088983535766602,
                1.9123110771179199,
                1.9157187938690186,
                1.9162112474441528,
                1.9163088798522949,
                1.9164376258850098,
                1.9181392192840576,
                1.921442985534668,
                1.9382444620132446,
                1.9766451120376587,
                1.9999110698699951,
                2.017784595489502,
                2.0771064758300781,
                2.1235761642456055,
                2.1307058334350586,
                2.137847900390625,
                2.182377815246582,
                2.2287120819091797,
                2.2824478149414063,
                2.3375325202941895,
                2.3821344375610352,
                2.4281044006347656,
                2.4584012031555176,
                2.4992580413818359,
                2.5219385623931885,
                2.5688619613647461,
                2.6237175464630127,
                2.6940293312072754,
                2.8011636734008789,
                2.8547344207763672,
                2.9039144515991211,
                2.9535646438598633,
                2.9707503318786621,
                3.0729460716247559,
                3.1993758678436279,
                3.2353911399841309,
                3.3217244148254395,
                3.4280862808227539,
                3.4694437980651855,
                3.5053539276123047,
                3.576258659362793,
                3.6407885551452637,
                3.6624879837036133,
                3.7312827110290527,
                3.787869930267334,
                3.8033485412597656,
                3.8251233100891113,
                3.8314611911773682,
                3.8388271331787109,
                3.8589053153991699,
                4.0272922515869141,
                4.2279758453369141,
                4.2900352478027344,
                4.383054256439209,
                4.8127861022949219,
                5.3897409439086914,
                5.636995792388916,
                5.6931819915771484,
                5.7472877502441406,
                6.4610929489135742,
                7.3790006637573242,
                8.5911884307861328,
                10.358957290649414,
                11.44828987121582,
                15.210094451904297,
                25.722408294677734
              ],
            "feature_index":1,
            "flat_feature_index":1,
            "has_nans":false,
            "nan_value_treatment":"AsIs"
          },
          {
            "borders":
              [
                0.038326587527990341,
                0.17064699530601501,
                0.33711221814155579,
                0.41342607140541077,
                0.55593341588973999,
                0.85558563470840454,
                1.0187280178070068,
                1.0302290916442871,
                1.0426995754241943,
                1.0490138530731201,
                1.064454197883606,
                1.0786271095275879,
                1.1144063472747803,
                1.158829927444458,
                1.1728963851928711,
                1.1905035972595215,
                1.2557467222213745,
                1.332606315612793,
                1.3745285272598267,
                1.4543824195861816,
                1.5532114505767822,
                1.6218934059143066,
                1.6732280254364014,
                1.700117826461792,
                1.7205135822296143,
                1.7641308307647705,
                1.8680846691131592,
                1.9427533149719238,
                1.9702135324478149,
                2.0654940605163574,
                2.1687657833099365,
                2.2848505973815918,
                2.4083681106567383,
                2.4576783180236816,
                2.5139706134796143,
                2.5613753795623779,
                2.6149444580078125,
                2.6868858337402344,
                2.7063789367675781,
                2.8062548637390137,
                2.9082915782928467,
                2.9155776500701904,
                2.9522461891174316,
                2.9859910011291504,
                2.9984958171844482,
                3.0212910175323486,
                3.0374491214752197,
                3.0965137481689453,
                3.1743602752685547,
                3.2111222743988037,
                3.2281856536865234,
                3.3022265434265137,
                3.3999118804931641,
                3.4344820976257324,
                3.4556884765625,
                3.4876875877380371,
                3.5063824653625488,
                3.554682731628418,
                3.6656198501586914,
                3.7520151138305664,
                3.7843186855316162,
                3.8154053688049316,
                4.0996651649475098,
                4.371617317199707,
                4.5131559371948242,
                4.6582403182983398,
                4.6928982734680176,
                4.7952351570129395,
                4.9259309768676758,
                5.0462827682495117,
                5.1200284957885742,
                5.1390962600708008,
                5.229405403137207,
                5.3604283332824707,
                5.4316539764404297,
                5.527338981628418,
                5.7751636505126953,
                5.965238094329834,
                6.0145378112792969,
                6.086942195892334,
                6.5067882537841797,
                6.9961938858032227,
                7.2822046279907227,
                7.5610876083374023,
                7.7196788787841797,
                7.9425945281982422,
                8.5803451538085938,
                9.1613368988037109,
                9.2780532836914063,
                9.3230695724487305,
                9.4140586853027344,
                9.5808010101318359,
                10.114535331726074,
                10.586599349975586,
                10.755153656005859,
                10.980854988098145,
                11.37129020690918,
                11.837656021118164,
                12.105716705322266,
                12.32945442199707,
                12.490884780883789,
                12.511074066162109,
                12.538330078125,
                12.706348419189453,
                12.929330825805664,
                13.024387359619141,
                13.299643516540527,
                13.762073516845703,
                14.679101943969727,
                15.430768966674805,
                15.60951042175293,
                15.952959060668945,
                16.386138916015625,
                16.709842681884766,
                16.850070953369141,
                17.298175811767578,
                17.850170135498047,
                18.081447601318359,
                18.241802215576172,
                18.47429084777832,
                18.679651260375977,
                18.980030059814453,
                19.685741424560547,
                20.780796051025391,
                22.939357757568359,
                25.137344360351563,
                26.069904327392578,
                26.581401824951172,
                27.430854797363281,
                28.843433380126953,
                30.688711166381836,
                31.746110916137695,
                32.598739624023438,
                33.775466918945313,
                34.720073699951172,
                35.415611267089844,
                37.508182525634766,
                41.093097686767578,
                43.628646850585938,
                58.066074371337891,
                69.426567077636719,
                140.08050537109375
              ],
            "feature_index":2,
            "flat_feature_index":2,
            "has_nans":false,
            "nan_value_treatment":"AsIs"
          },
          {
            "borders":
              [
                0.023871975019574165,
                0.10383892804384232,
                0.1842179000377655,
                0.24761641025543213,
                0.34780097007751465,
                0.47642749547958374,
                0.71067893505096436,
                0.90472078323364258,
                0.94927692413330078,
                0.96834725141525269,
                0.99030286073684692,
                1.0115699768066406,
                1.0238282680511475,
                1.0349183082580566,
                1.0416947603225708,
                1.0499641895294189,
                1.0542697906494141,
                1.0601174831390381,
                1.0643792152404785,
                1.0720696449279785,
                1.1023414134979248,
                1.176746129989624,
                1.2643884420394897,
                1.3044230937957764,
                1.3111015558242798,
                1.3188395500183105,
                1.330890417098999,
                1.3612322807312012,
                1.4772368669509888,
                1.5732842683792114,
                1.6410021781921387,
                1.7399327754974365,
                1.8573000431060791,
                1.9683520793914795,
                2.0079998970031738,
                2.0945615768432617,
                2.1884498596191406,
                2.2341556549072266,
                2.2861263751983643,
                2.3284149169921875,
                2.347463846206665,
                2.3976912498474121,
                2.4480876922607422,
                2.4841594696044922,
                2.5231151580810547,
                2.5314517021179199,
                2.5580949783325195,
                2.61572265625,
                2.6566438674926758,
                2.6689879894256592,
                2.7150087356567383,
                2.7775862216949463,
                2.8231077194213867,
                2.9158987998962402,
                2.9979262351989746,
                3.0573372840881348,
                3.1164698600769043,
                3.1492633819580078,
                3.2583715915679932,
                3.3851866722106934,
                3.4997739791870117,
                3.5996096134185791,
                3.6338808536529541,
                3.6618866920471191,
                3.7318897247314453,
                3.8011436462402344,
                4.0573940277099609,
                4.4179325103759766,
                4.619816780090332,
                4.7046222686767578,
                4.7243733406066895,
                4.7700071334838867,
                4.8135910034179688,
                4.8435277938842773,
                4.9531764984130859,
                5.0514984130859375,
                5.0584268569946289,
                5.0914125442504883,
                5.1925153732299805,
                5.3614969253540039,
                5.6449623107910156,
                5.910374641418457,
                6.0451984405517578,
                6.5106534957885742,
                6.9709043502807617,
                7.1042318344116211,
                7.3000025749206543,
                7.5493917465209961,
                7.7949151992797852,
                8.0077629089355469,
                8.1813716888427734,
                8.2604389190673828,
                8.5565357208251953,
                8.9836826324462891,
                9.2067222595214844,
                9.4811153411865234,
                9.8898191452026367,
                10.562670707702637,
                11.083199501037598,
                11.306304931640625,
                11.490509033203125,
                11.522487640380859,
                11.638933181762695,
                12.421686172485352,
                13.174514770507813,
                13.26648998260498,
                13.296497344970703,
                13.343941688537598,
                13.613080024719238,
                13.88829231262207,
                14.913806915283203,
                15.984105110168457,
                16.239154815673828,
                16.419410705566406,
                16.443527221679688,
                16.499238967895508,
                16.587627410888672,
                16.721855163574219,
                16.866083145141602,
                17.061729431152344,
                17.349645614624023,
                17.795684814453125,
                18.147098541259766,
                18.250572204589844,
                18.347412109375,
                18.815113067626953,
                19.367008209228516,
                19.972057342529297,
                20.679925918579102,
                21.058855056762695,
                22.968559265136719,
                25.329868316650391,
                26.312305450439453,
                28.360267639160156,
                30.446949005126953,
                31.185623168945313,
                31.714447021484375,
                32.222980499267578,
                32.797309875488281,
                34.237442016601563,
                40.061077117919922,
                47.869297027587891,
                53.76824951171875,
                61.692481994628906,
                86.011001586914063
              ],
            "feature_index":3,
            "flat_feature_index":3,
            "has_nans":false,
            "nan_value_treatment":"AsIs"
          }
        ]
    },
  "model_info":
    {
      "catboost_version_info":"Git info:\n    Commit: 280ef2e9eec735b20a698b77f4e41312bb882dd6\n    Branch: heads/master\n    Author: cerevra <cerevra@yandex-team.ru>\n    Summary: Revert \"[util] Retry madavise() if EAGAIN happend (PASSP-32654)\"\n    git-svn info:\n    Last Changed Rev: 8234219\n\nOther info:\n    Build by: zomb-ml-platform-oss\n    Top src dir: C:\\Program Files (x86)\\Go Agent\\pipelines\\BuildMaster\\catboost.git\n    Top build dir: C:\\Users\\zomb-ml-platform-msk\\.ya\\build\n    Hostname: platform-w10\n    Host information: \n        Microsoft Windows [Version 10.0.17134.2145]\n\n    ",
      "class_params":
        {
          "class_label_type":"Integer",
          "class_names":
            [
              0,
              1
            ],
          "class_to_label":
            [
              0,
              1
            ],
          "classes_count":0
        },
      "model_guid":"31fc84b4-61f7bed8-b03c83ad-671eebe3",
      "output_options":"{\"name\":\"experiment\",\"verbose\":0,\"test_error_log\":\"test_error.tsv\",\"json_log\":\"catboost_training.json\",\"result_model_file\":\"model\",\"roc_file\":\"\",\"eval_file_name\":\"\",\"use_best_model\":false,\"allow_writing_files\":true,\"prediction_type\":[\"RawFormulaVal\"],\"fstr_internal_file\":\"\",\"output_columns\":[\"SampleId\",\"RawFormulaVal\",\"Label\"],\"snapshot_interval\":600,\"time_left_log\":\"time_left.tsv\",\"fstr_type\":\"FeatureImportance\",\"profile_log\":\"catboost_profile.log\",\"train_dir\":\"catboost_info\",\"learn_error_log\":\"learn_error.tsv\",\"training_options_file\":\"\",\"snapshot_file\":\"experiment.cbsnapshot\",\"save_snapshot\":false,\"model_format\":[\"CatboostBinary\"],\"final_feature_calcer_computation_mode\":\"Default\",\"metric_period\":1,\"output_borders\":\"\",\"final_ctr_computation_mode\":\"Default\",\"best_model_min_trees\":1,\"fstr_regular_file\":\"\"}",
      "params":
        {
          "boosting_options":
            {
              "approx_on_full_history":false,
              "boost_from_average":false,
              "boosting_type":"Plain",
              "fold_len_multiplier":2,
              "fold_permutation_block":0,
              "iterations":1000,
              "learning_rate":0.0046350001357495785,
              "model_shrink_mode":"Constant",
              "model_shrink_rate":0,
              "od_config":
                {
                  "stop_pvalue":0,
                  "type":"None",
                  "wait_iterations":20
                },
              "permutation_count":4,
              "posterior_sampling":false
            },
          "cat_feature_params":
            {
              "combinations_ctrs":
                [
                  {
                    "ctr_binarization":
                      {
                        "border_count":15,
                        "border_type":"Uniform"
                      },
                    "ctr_type":"Borders",
                    "prior_estimation":"No",
                    "priors":
                      [
                        [
                          0,
                          1
                        ],
                        [
                          0.5,
                          1
                        ],
                        [
                          1,
                          1
                        ]
                      ],
                    "target_binarization":
                      {
                        "border_count":1,
                        "border_type":"MinEntropy"
                      }
                  },
                  {
                    "ctr_binarization":
                      {
                        "border_count":15,
                        "border_type":"Uniform"
                      },
                    "ctr_type":"Counter",
                    "prior_estimation":"No",
                    "priors":
                      [
                        [
                          0,
                          1
                        ]
                      ]
                  }
                ],
              "counter_calc_method":"SkipTest",
              "ctr_leaf_count_limit":18446744073709551615,
              "max_ctr_complexity":4,
              "one_hot_max_size":2,
              "per_feature_ctrs":
                {
                },
              "simple_ctrs":
                [
                  {
                    "ctr_binarization":
                      {
                        "border_count":15,
                        "border_type":"Uniform"
                      },
                    "ctr_type":"Borders",
                    "prior_estimation":"No",
                    "priors":
                      [
                        [
                          0,
                          1
                        ],
                        [
                          0.5,
                          1
                        ],
                        [
                          1,
                          1
                        ]
                      ],
                    "target_binarization":
                      {
                        "border_count":1,
                        "border_type":"MinEntropy"
                      }
                  },
                  {
                    "ctr_binarization":
                      {
                        "border_count":15,
                        "border_type":"Uniform"
                      },
                    "ctr_type":"Counter",
                    "prior_estimation":"No",
                    "priors":
                      [
                        [
                          0,
                          1
                        ]
                      ]
                  }
                ],
              "store_all_simple_ctr":false,
              "target_binarization":
                {
                  "border_count":1,
                  "border_type":"MinEntropy"
                }
            },
          "data_processing_options":
            {
              "allow_const_label":false,
              "auto_class_weights":"None",
              "class_names":
                [
                  0,
                  1
                ],
              "class_weights":
                [
                ],
              "classes_count":0,
              "dev_default_value_fraction_for_sparse":0.82999998331069946,
              "dev_group_features":false,
              "dev_leafwise_scoring":false,
              "dev_sparse_array_indexing":"Indices",
              "float_features_binarization":
                {
                  "border_count":254,
                  "border_type":"GreedyLogSum",
                  "dev_max_subset_size_for_build_borders":200000,
                  "nan_mode":"Min"
                },
              "has_time":false,
              "ignored_features":
                [
                ],
              "per_float_feature_quantization":
                {
                },
              "target_border":null,
              "text_processing_options":
                {
                  "dictionaries":
                    [
                      {
                        "dictionary_id":"BiGram",
                        "end_of_sentence_token_policy":"Skip",
                        "end_of_word_token_policy":"Insert",
                        "gram_order":"2",
                        "max_dictionary_size":"50000",
                        "occurrence_lower_bound":"1",
                        "skip_step":"0",
                        "start_token_id":"0",
                        "token_level_type":"Word"
                      },
                      {
                        "dictionary_id":"Word",
                        "end_of_sentence_token_policy":"Skip",
                        "end_of_word_token_policy":"Insert",
                        "gram_order":"1",
                        "max_dictionary_size":"50000",
                        "occurrence_lower_bound":"1",
                        "skip_step":"0",
                        "start_token_id":"0",
                        "token_level_type":"Word"
                      }
                    ],
                  "feature_processing":
                    {
                      "default":
                        [
                          {
                            "dictionaries_names":
                              [
                                "BiGram",
                                "Word"
                              ],
                            "feature_calcers":
                              [
                                "BoW"
                              ],
                            "tokenizers_names":
                              [
                                "Space"
                              ]
                          },
                          {
                            "dictionaries_names":
                              [
                                "Word"
                              ],
                            "feature_calcers":
                              [
                                "NaiveBayes"
                              ],
                            "tokenizers_names":
                              [
                                "Space"
                              ]
                          }
                        ]
                    },
                  "tokenizers":
                    [
                      {
                        "delimiter":" ",
                        "languages":
                          [
                          ],
                        "lemmatizing":"0",
                        "lowercasing":"0",
                        "number_process_policy":"LeaveAsIs",
                        "number_token":"🔢",
                        "separator_type":"ByDelimiter",
                        "skip_empty":"1",
                        "split_by_set":"0",
                        "subtokens_policy":"SingleToken",
                        "token_types":
                          [
                            "Number",
                            "Unknown",
                            "Word"
                          ],
                        "tokenizer_id":"Space"
                      }
                    ]
                }
            },
          "detailed_profile":false,
          "flat_params":
            {
              "loss_function":"Logloss",
              "verbose":0
            },
          "logging_level":"Silent",
          "loss_function":
            {
              "params":
                {
                },
              "type":"Logloss"
            },
          "metadata":
            {
            },
          "metrics":
            {
              "custom_metrics":
                [
                ],
              "eval_metric":
                {
                  "params":
                    {
                    },
                  "type":"Logloss"
                },
              "objective_metric":
                {
                  "params":
                    {
                    },
                  "type":"Logloss"
                }
            },
          "pool_metainfo_options":
            {
              "tags":
                {
                }
            },
          "random_seed":0,
          "system_options":
            {
              "file_with_hosts":"hosts.txt",
              "node_port":0,
              "node_type":"SingleHost",
              "thread_count":16,
              "used_ram_limit":""
            },
          "task_type":"CPU",
          "tree_learner_options":
            {
              "bayesian_matrix_reg":0.10000000149011612,
              "bootstrap":
                {
                  "mvs_reg":null,
                  "subsample":0.80000001192092896,
                  "type":"MVS"
                },
              "depth":6,
              "dev_efb_max_buckets":1024,
              "dev_leafwise_approxes":false,
              "dev_score_calc_obj_block_size":5000000,
              "grow_policy":"SymmetricTree",
              "l2_leaf_reg":3,
              "leaf_estimation_backtracking":"AnyImprovement",
              "leaf_estimation_iterations":10,
              "leaf_estimation_method":"Newton",
              "max_leaves":64,
              "min_data_in_leaf":1,
              "model_size_reg":0.5,
              "monotone_constraints":
                {
                },
              "penalties":
                {
                  "feature_weights":
                    {
                    },
                  "first_feature_use_penalties":
                    {
                    },
                  "penalties_coefficient":1,
                  "per_object_feature_penalties":
                    {
                    }
                },
              "random_strength":1,
              "rsm":1,
              "sampling_frequency":"PerTree",
              "score_function":"Cosine",
              "sparse_features_conflict_fraction":0
            }
        },
      "train_finish_time":"2021-06-29T18:36:04Z"
    },
  "oblivious_trees":
    [
      {
        "leaf_values":
          [
            -0.014129055992833534,
            0,
            0,
            0,
            0.0052230622544234221,
            0,
            0,
            0,
            -0.0094260835438721227,
            0,
            0,
            0,
            0,
            0,
            0,
            0,
            0,
            0,
            0,
            0,
            0,
            0,
            0,
            0,
            -0.013023239803048902,
            0.0027225449762896098,
            0,
            0,
            -0.0052230622544234204,
            0.015134844310262975,
            0,
            0,
            -0.0059467939419775668,
            0,
            -0.0078285138591208565,
            0,
            0,
            0,
            0,
            0,
            -0.01064412768740599,
            0,
            0.0028084692846902163,
            0,
            -0.0052230622544234204,
            0,
            0,
            0,
            0,
            0,
            0,
            0,
            0,
            0,
            0,
            0,
            0,
            0,
            0.0052230622544234221,
            0,
            0.0079401285336765694,
            0.012826335030174531,
            0,
            0
          ],
        "leaf_weights":
          [
            8,
            0,
            0,
            0,
            1,
            0,
            0,
            0,
            26,
            0,
            0,
            0,
            0,
            0,
            0,
            0,
            0,
            0,
            0,
            0,
            0,
            0,
            0,
            0,
            53,
            14,
            0,
            0,
            1,
            10,
            0,
            0,
            5,
            0,
            7,
            0,
            0,
            0,
            0,
            0,
            12,
            0,
            3,
            0,
            1,
            0,
            0,
            0,
            0,
            0,
            0,
            0,
            0,
            0,
            0,
            0,
            4,
            0,
            1,
            0,
            2,
            6,
            0,
            0
          ],
        "splits":
          [
            {
              "border":18.980030059814453,
              "float_feature_index":2,
              "split_index":290,
              "split_type":"FloatFeature"
            },
            {
              "border":0.72533440589904785,
              "float_feature_index":0,
              "split_index":25,
              "split_type":"FloatFeature"
            },
            {
              "border":3.8314611911773682,
              "float_feature_index":1,
              "split_index":150,
              "split_type":"FloatFeature"
            },
            {
              "border":1.3745285272598267,
              "float_feature_index":2,
              "split_index":187,
              "split_type":"FloatFeature"
            },
            {
              "border":3.7843186855316162,
              "float_feature_index":2,
              "split_index":229,
              "split_type":"FloatFeature"
            },
            {
              "border":0.086538463830947876,
              "float_feature_index":0,
              "split_index":7,
              "split_type":"FloatFeature"
            }
          ]
      },
      {
        "leaf_values":
          [
            -0.014197765635543411,
            -0.0027835502483637398,
            0,
            0,
            0,
            0,
            0,
            0,
            0,
            0,
            0,
            0,
            0,
            0,
            0,
            0,
            0,
            0,
            0,
            0,
            0,
            0,
            0,
            0,
            0,
            0,
            0,
            0,
            0,
            0,
            0,
            0,
            -0.0065087131593767828,
            -0.0041334972022072152,
            0,
            0,
            0,
            0,
            0,
            0,
            -0.007898866562489221,
            -0.0052009681441110844,
            0,
            0,
            0,
            0,
            0,
            0,
            -0.002755291312180083,
            0,
            0,
            0,
            0,
            0,
            0,
            0,
            -0.015896492483063605,
            -0.0031186814820542007,
            0,
            0,
            -0.015507411679218153,
            -0.0018128557975211621,
            -0.0021668136527608467,
            0.01312225922355771
          ],
        "leaf_weights":
          [
            25,
            3,
            0,
            0,
            0,
            0,
            0,
            0,
            0,
            0,
            0,
            0,
            0,
            0,
            0,
            0,
            0,
            0,
            0,
            0,
            0,
            0,
            0,
            0,
            0,
            0,
            0,
            0,
            0,
            0,
            0,
            0,
            46,
            7,
            0,
            0,
            0,
            0,
            0,
            0,
            2,
            1,
            0,
            0,
            0,
            0,
            0,
            0,
            3,
            0,
            0,
            0,
            0,
            0,
            0,
            0,
            12,
            6,
            0,
            0,
            11,
            5,
            13,
            20
          ],
        "splits":
          [
            {
              "border":2.6237175464630127,
              "float_feature_index":1,
              "split_index":129,
              "split_type":"FloatFeature"
            },
            {
              "border":16.866083145141602,
              "float_feature_index":3,
              "split_index":429,
              "split_type":"FloatFeature"
            },
            {
              "border":12.538330078125,
              "float_feature_index":2,
              "split_index":271,
              "split_type":"FloatFeature"
            },
            {
              "border":5.910374641418457,
              "float_feature_index":3,
              "split_index":392,
              "split_type":"FloatFeature"
            },
            {
              "border":6.9961938858032227,
              "float_feature_index":2,
              "split_index":250,
              "split_type":"FloatFeature"
            },
            {
              "border":1.3188395500183105,
              "float_feature_index":3,
              "split_index":336,
              "split_type":"FloatFeature"
            }
          ]
      },
      {
        "leaf_values":
          [
            -0.013414386546533581,
            0,
            -0.0078733553262313721,
            0,
            2.6361331144411697e-05,
            0,
            0,
            0,
            -0.011928997195761062,
            -0.0096015351550363427,
            0.0046783488016112849,
            0,
            -0.009216110243156184,
            0.0079015762350617795,
            0.0079390541374557821,
            0,
            0,
            0,
            0,
            0,
            0,
            0,
            0,
            0,
            0,
            -0.0026947157180902742,
            0,
            0,
            0,
            0.012814244460036315,
            0,
            0.0051623087703350536,
            0,
            0,
            -0.011913751546406148,
            0,
            0,
            0,
            0,
            0,
            0,
            0,
            0.0046572815735291774,
            0,
            0,
            0,
            0,
            0,
            0,
            0,
            0,
            0,
            0,
            0,
            0,
            0,
            0,
            0,
            0,
            0,
            0,
            0,
            0,
            0
          ],
        "leaf_weights":
          [
            7,
            0,
            2,
            0,
            2,
            0,
            0,
            0,
            72,
            3,
            4,
            0,
            17,
            2,
            2,
            0,
            0,
            0,
            0,
            0,
            0,
            0,
            0,
            0,
            0,
            14,
            0,
            0,
            0,
            19,
            0,
            1,
            0,
            0,
            5,
            0,
            0,
            0,
            0,
            0,
            0,
            0,
            4,
            0,
            0,
            0,
            0,
            0,
            0,
            0,
            0,
            0,
            0,
            0,
            0,
            0,
            0,
            0,
            0,
            0,
            0,
            0,
            0,
            0
          ],
        "splits":
          [
            {
              "border":16.386138916015625,
              "float_feature_index":2,
              "split_index":281,
              "split_type":"FloatFeature"
            },
            {
              "border":0.44105350971221924,
              "float_feature_index":0,
              "split_index":18,
              "split_type":"FloatFeature"
            },
            {
              "border":2.5688619613647461,
              "float_feature_index":1,
              "split_index":128,
              "split_type":"FloatFeature"
            },
            {
              "border":1.158829927444458,
              "float_feature_index":2,
              "split_index":182,
              "split_type":"FloatFeature"
            },
            {
              "border":16.721855163574219,
              "float_feature_index":3,
              "split_index":428,
              "split_type":"FloatFeature"
            },
            {
              "border":0.79807692766189575,
              "float_feature_index":0,
              "split_index":27,
              "split_type":"FloatFeature"
            }
          ]
      },
      {
        "leaf_values":
          [
            -0.0090319974791375716,
            0,
            0,
            0,
            -0.0051461843404612458,
            0,
            0,
            0,
            0,
            0.0052172797017881268,
            0,
            0,
            0,
            0,
            0,
            0,
            -0.0044983341575101053,
            0,
            0,
            0,
            -0.0069242992990124078,
            0.0027359895799411557,
            0,
            0,
            0,
            0,
            0,
            0,
            0,
            0,
            0,
            0,
            -0.0051494305276689224,
            0,
            -0.0061675084896110561,
            -0.0051795561415668321,
            0,
            0,
            -0.0051672301844538924,
            0,
            0,
            0,
            0,
            0,
            0,
            0,
            0,
            0,
            0,
            0,
            -0.0051613172592850278,
            0,
            -0.0051461843404612458,
            0.0078102168073955619,
            -0.0051941560125631581,
            0,
            0,
            0,
            0,
            0,
            0,
            0.0051270019155957814,
            0,
            0.016504183919675636
          ],
        "leaf_weights":
          [
            33,
            0,
            0,
            0,
            1,
            0,
            0,
            0,
            0,
            1,
            0,
            0,
            0,
            0,
            0,
            0,
            4,
            0,
            0,
            0,
            50,
            3,
            0,
            0,
            0,
            0,
            0,
            0,
            0,
            0,
            0,
            0,
            1,
            0,
            39,
            1,
            0,
            0,
            1,
            0,
            0,
            0,
            0,
            0,
            0,
            0,
            0,
            0,
            0,
            0,
            1,
            0,
            1,
            2,
            1,
            0,
            0,
            0,
            0,
            0,
            0,
            1,
            0,
            14
          ],
        "splits":
          [
            {
              "border":3.8251233100891113,
              "float_feature_index":1,
              "split_index":149,
              "split_type":"FloatFeature"
            },
            {
              "border":0.050585284829139709,
              "float_feature_index":0,
              "split_index":5,
              "split_type":"FloatFeature"
            },
            {
              "border":5.0914125442504883,
              "float_feature_index":3,
              "split_index":388,
              "split_type":"FloatFeature"
            },
            {
              "border":4.2900352478027344,
              "float_feature_index":1,
              "split_index":155,
              "split_type":"FloatFeature"
            },
            {
              "border":5.4316539764404297,
              "float_feature_index":2,
              "split_index":243,
              "split_type":"FloatFeature"
            },
            {
              "border":0.040969900786876678,
              "float_feature_index":0,
              "split_index":4,
              "split_type":"FloatFeature"
            }
          ]
      },
      {
        "leaf_values":
          [
            -0.010319644964679076,
            0,
            -0.0049450378408656959,
            0,
            -0.0090198406959355083,
            0,
            0.0052352378127962724,
            0,
            0,
            0,
            0,
            0,
            0,
            0,
            0,
            0,
            -0.0078200762869764361,
            0,
            0,
            0,
            -0.00861548285155464,
            0,
            0.0079483068984310228,
            0,
            0,
            0,
            0,
            0,
            -0.011067023037867852,
            0,
            0.0051545603706159111,
            0,
            0,
            0,
            0,
            0,
            0,
            0,
            0,
            0,
            0,
            0,
            0,
            0,
            0,
            0,
            0,
            0,
            0,
            0,
            0,
            0,
            0,
            0,
            0,
            0,
            0,
            0,
            0,
            0,
            0.00051063246948380796,
            0.011866479766765926,
            0,
            0
          ],
        "leaf_weights":
          [
            32,
            0,
            12,
            0,
            9,
            0,
            1,
            0,
            0,
            0,
            0,
            0,
            0,
            0,
            0,
            0,
            2,
            0,
            0,
            0,
            23,
            0,
            2,
            0,
            0,
            0,
            0,
            0,
            37,
            0,
            1,
            0,
            0,
            0,
            0,
            0,
            0,
            0,
            0,
            0,
            0,
            0,
            0,
            0,
            0,
            0,
            0,
            0,
            0,
            0,
            0,
            0,
            0,
            0,
            0,
            0,
            0,
            0,
            0,
            0,
            19,
            16,
            0,
            0
          ],
        "splits":
          [
            {
              "border":26.581401824951172,
              "float_feature_index":2,
              "split_index":296,
              "split_type":"FloatFeature"
            },
            {
              "border":0.50961542129516602,
              "float_feature_index":0,
              "split_index":20,
              "split_type":"FloatFeature"
            },
            {
              "border":2.4841594696044922,
              "float_feature_index":3,
              "split_index":354,
              "split_type":"FloatFeature"
            },
            {
              "border":6.0145378112792969,
              "float_feature_index":2,
              "split_index":247,
              "split_type":"FloatFeature"
            },
            {
              "border":3.3022265434265137,
              "float_feature_index":2,
              "split_index":220,
              "split_type":"FloatFeature"
            },
            {
              "border":17.850170135498047,
              "float_feature_index":2,
              "split_index":285,
              "split_type":"FloatFeature"
            }
          ]
      },
      {
        "leaf_values":
          [
            -0.010814938340467678,
            -0.0037451081335741127,
            0,
            0,
            0,
            0,
            0,
            0,
            0,
            0,
            0,
            0,
            0,
            0,
            0,
            0,
            0,
            -0.0051812596513550113,
            0,
            0,
            0,
            0,
            0,
            0,
            0,
            0,
            0,
            0,
            0,
            0,
            0,
            0,
            0,
            0,
            0,
            0,
            0,
            0,
            0,
            0,
            0,
            0,
            0,
            0,
            0,
            0,
            0,
            0,
            -0.0094266555385912471,
            0.0059823061197367272,
            0,
            0,
            0,
            0,
            0,
            0,
            -0.014880916521907452,
            0.0051425232831322698,
            -0.0034717617172667532,
            0,
            0.0051336103117145459,
            0,
            0.012919740641221155,
            0
          ],
        "leaf_weights":
          [
            13,
            10,
            0,
            0,
            0,
            0,
            0,
            0,
            0,
            0,
            0,
            0,
            0,
            0,
            0,
            0,
            0,
            1,
            0,
            0,
            0,
            0,
            0,
            0,
            0,
            0,
            0,
            0,
            0,
            0,
            0,
            0,
            0,
            0,
            0,
            0,
            0,
            0,
            0,
            0,
            0,
            0,
            0,
            0,
            0,
            0,
            0,
            0,
            54,
            5,
            0,
            0,
            0,
            0,
            0,
            0,
            30,
            1,
            19,
            0,
            1,
            0,
            20,
            0
          ],
        "splits":
          [
            {
              "border":0.47951504588127136,
              "float_feature_index":0,
              "split_index":19,
              "split_type":"FloatFeature"
            },
            {
              "border":16.239154815673828,
              "float_feature_index":3,
              "split_index":423,
              "split_type":"FloatFeature"
            },
            {
              "border":19.685741424560547,
              "float_feature_index":2,
              "split_index":291,
              "split_type":"FloatFeature"
            },
            {
              "border":5.6449623107910156,
              "float_feature_index":3,
              "split_index":391,
              "split_type":"FloatFeature"
            },
            {
              "border":1.5532114505767822,
              "float_feature_index":2,
              "split_index":189,
              "split_type":"FloatFeature"
            },
            {
              "border":1.6218934059143066,
              "float_feature_index":2,
              "split_index":190,
              "split_type":"FloatFeature"
            }
          ]
      },
      {
        "leaf_values":
          [
            -0.0087339652881332289,
            0,
            0,
            0,
            -0.011258827574597285,
            0,
            0,
            0,
            0,
            0,
            0,
            0,
            0,
            0,
            0,
            0,
            0,
            0,
            0,
            0,
            -0.0027150060404437511,
            0,
            0,
            0,
            0,
            0,
            0,
            0,
            0,
            0,
            0,
            0,
            -0.016011619996119022,
            0,
            -0.0035357035168907974,
            0,
            -0.0044889165655377398,
            0.005082437707307313,
            0.0096188372479645706,
            0.009421442380412778,
            0,
            0,
            0,
            0,
            0,
            0,
            0,
            0.011682543228432377,
            0,
            0,
            0,
            0,
            0.0051305229481835839,
            0,
            0,
            0,
            0,
            0,
            0,
            0,
            0,
            0,
            0,
            0.0076995384178221594
          ],
        "leaf_weights":
          [
            40,
            0,
            0,
            0,
            39,
            0,
            0,
            0,
            0,
            0,
            0,
            0,
            0,
            0,
            0,
            0,
            0,
            0,
            0,
            0,
            20,
            0,
            0,
            0,
            0,
            0,
            0,
            0,
            0,
            0,
            0,
            0,
            13,
            0,
            16,
            0,
            4,
            1,
            3,
            10,
            0,
            0,
            0,
            0,
            0,
            0,
            0,
            5,
            0,
            0,
            0,
            0,
            1,
            0,
            0,
            0,
            0,
            0,
            0,
            0,
            0,
            0,
            0,
            2
          ],
        "splits":
          [
            {
              "border":25.137344360351563,
              "float_feature_index":2,
              "split_index":294,
              "split_type":"FloatFeature"
            },
            {
              "border":16.499238967895508,
              "float_feature_index":3,
              "split_index":426,
              "split_type":"FloatFeature"
            },
            {
              "border":0.024108137935400009,
              "float_feature_index":0,
              "split_index":2,
              "split_type":"FloatFeature"
            },
            {
              "border":37.508182525634766,
              "float_feature_index":2,
              "split_index":305,
              "split_type":"FloatFeature"
            },
            {
              "border":0.28846156597137451,
              "float_feature_index":0,
              "split_index":14,
              "split_type":"FloatFeature"
            },
            {
              "border":9.8898191452026367,
              "float_feature_index":3,
              "split_index":407,
              "split_type":"FloatFeature"
            }
          ]
      },
      {
        "leaf_values":
          [
            -0.013804677577868523,
            0,
            -0.0026188948844527524,
            0,
            -0.011982175609751518,
            0,
            -0.0085589780249982587,
            0.0077756297552868444,
            0,
            0,
            0,
            0,
            0,
            0,
            0,
            0,
            0,
            0,
            0,
            0,
            -0.013923432911701967,
            0,
            0.0019383861174878036,
            0.012026716172726945,
            0,
            0,
            0,
            0,
            0,
            0,
            0,
            0,
            0,
            0,
            -0.0050703611660318469,
            0,
            -0.0083102739247154552,
            0,
            -0.0057257087378939997,
            0,
            0,
            0,
            0,
            0,
            -0.0024239369290147963,
            0,
            0.0078644777965847928,
            0,
            0,
            0,
            0,
            0,
            0,
            0,
            0,
            0.0076753601261152103,
            0,
            0,
            0,
            0,
            0,
            0,
            0,
            0
          ],
        "leaf_weights":
          [
            8,
            0,
            3,
            0,
            46,
            0,
            31,
            2,
            0,
            0,
            0,
            0,
            0,
            0,
            0,
            0,
            0,
            0,
            0,
            0,
            8,
            0,
            10,
            17,
            0,
            0,
            0,
            0,
            0,
            0,
            0,
            0,
            0,
            0,
            1,
            0,
            8,
            0,
            5,
            0,
            0,
            0,
            0,
            0,
            11,
            0,
            2,
            0,
            0,
            0,
            0,
            0,
            0,
            0,
            0,
            2,
            0,
            0,
            0,
            0,
            0,
            0,
            0,
            0
          ],
        "splits":
          [
            {
              "border":19.685741424560547,
              "float_feature_index":2,
              "split_index":291,
              "split_type":"FloatFeature"
            },
            {
              "border":1.9181392192840576,
              "float_feature_index":1,
              "split_index":109,
              "split_type":"FloatFeature"
            },
            {
              "border":0.96834725141525269,
              "float_feature_index":3,
              "split_index":320,
              "split_type":"FloatFeature"
            },
            {
              "border":0.67307692766189575,
              "float_feature_index":0,
              "split_index":23,
              "split_type":"FloatFeature"
            },
            {
              "border":16.443527221679688,
              "float_feature_index":3,
              "split_index":425,
              "split_type":"FloatFeature"
            },
            {
              "border":0.15175585448741913,
              "float_feature_index":0,
              "split_index":10,
              "split_type":"FloatFeature"
            }
          ]
      },
      {
        "leaf_values":
          [
            -0.0093687871680238812,
            0,
            0,
            0,
            -0.01430679283743716,
            0,
            -0.011915995288267756,
            -0.012579727107251122,
            -0.0050029970476161813,
            0,
            0,
            0,
            -0.0015467950476459476,
            0,
            -0.010004910795568646,
            0.0031206984615818707,
            0,
            0,
            0,
            0,
            -0.0077011238960961468,
            0,
            0,
            0,
            0,
            0,
            0,
            0,
            -0.010724033490311251,
            0,
            -0.0094047969295123907,
            0.014734807681891818,
            0,
            0,
            0,
            0,
            0,
            0,
            0,
            0,
            0,
            0,
            0,
            0,
            0,
            0,
            0,
            0,
            0,
            0,
            0,
            0,
            -0.005879905090804426,
            0,
            0.0052090052658472332,
            0,
            0,
            0,
            0,
            0,
            -0.0094494651093985586,
            0,
            0.0032200498861357724,
            0.0076512809714167768
          ],
        "leaf_weights":
          [
            3,
            0,
            0,
            0,
            9,
            0,
            31,
            6,
            1,
            0,
            0,
            0,
            5,
            0,
            21,
            21,
            0,
            0,
            0,
            0,
            2,
            0,
            0,
            0,
            0,
            0,
            0,
            0,
            4,
            0,
            10,
            10,
            0,
            0,
            0,
            0,
            0,
            0,
            0,
            0,
            0,
            0,
            0,
            0,
            0,
            0,
            0,
            0,
            0,
            0,
            0,
            0,
            19,
            0,
            1,
            0,
            0,
            0,
            0,
            0,
            3,
            0,
            6,
            2
          ],
        "splits":
          [
            {
              "border":16.386138916015625,
              "float_feature_index":2,
              "split_index":281,
              "split_type":"FloatFeature"
            },
            {
              "border":2.9859910011291504,
              "float_feature_index":2,
              "split_index":212,
              "split_type":"FloatFeature"
            },
            {
              "border":0.10383892804384232,
              "float_feature_index":3,
              "split_index":312,
              "split_type":"FloatFeature"
            },
            {
              "border":1.9023342132568359,
              "float_feature_index":1,
              "split_index":100,
              "split_type":"FloatFeature"
            },
            {
              "border":0.050585284829139709,
              "float_feature_index":0,
              "split_index":5,
              "split_type":"FloatFeature"
            },
            {
              "border":0.12290969491004944,
              "float_feature_index":0,
              "split_index":9,
              "split_type":"FloatFeature"
            }
          ]
      },
      {
        "leaf_values":
          [
            -0.0070720544611998434,
            0,
            0,
            0,
            0,
            0,
            0,
            0,
            0,
            0,
            0,
            0,
            0,
            0,
            0,
            0,
            0,
            0,
            0,
            0,
            0,
            0,
            0,
            0,
            0,
            0,
            0,
            0,
            0,
            0,
            0,
            0,
            -0.010952111261753949,
            0,
            -0.0057561274629751736,
            0.0010787236198008109,
            0,
            0,
            0,
            0,
            0,
            0,
            -0.010304051178076746,
            0.0050830752035215801,
            0,
            0,
            -0.0041595125274697595,
            0.012477794474364394,
            0,
            0,
            0,
            0,
            0,
            0,
            0,
            0,
            0,
            0,
            0,
            0,
            0,
            0,
            0,
            0.0049830318296579272
          ],
        "leaf_weights":
          [
            12,
            0,
            0,
            0,
            0,
            0,
            0,
            0,
            0,
            0,
            0,
            0,
            0,
            0,
            0,
            0,
            0,
            0,
            0,
            0,
            0,
            0,
            0,
            0,
            0,
            0,
            0,
            0,
            0,
            0,
            0,
            0,
            63,
            0,
            19,
            9,
            0,
            0,
            0,
            0,
            0,
            0,
            12,
            1,
            0,
            0,
            18,
            19,
            0,
            0,
            0,
            0,
            0,
            0,
            0,
            0,
            0,
            0,
            0,
            0,
            0,
            0,
            0,
            1
          ],
        "splits":
          [
            {
              "border":18.980030059814453,
              "float_feature_index":2,
              "split_index":290,
              "split_type":"FloatFeature"
            },
            {
              "border":1.9088983535766602,
              "float_feature_index":1,
              "split_index":103,
              "split_type":"FloatFeature"
            },
            {
              "border":2.9039144515991211,
              "float_feature_index":1,
              "split_index":133,
              "split_type":"FloatFeature"
            },
            {
              "border":2.2287120819091797,
              "float_feature_index":1,
              "split_index":120,
              "split_type":"FloatFeature"
            },
            {
              "border":86.011001586914063,
              "float_feature_index":3,
              "split_index":455,
              "split_type":"FloatFeature"
            },
            {
              "border":0.99692279100418091,
              "float_feature_index":1,
              "split_index":41,
              "split_type":"FloatFeature"
            }
          ]
      },
      {
        "leaf_values":
          [
            -0.013698256179726403,
            0,
            0,
            0,
            0,
            0,
            0,
            0,
            -0.011549867283334778,
            -0.004367570093860385,
            0,
            0,
            0,
            0,
            0,
            0,
            -0.0073874722395979491,
            0,
            0,
            0,
            -0.013028323173790778,
            0,
            0,
            0,
            -0.0084916450583737771,
            -0.0083779139940516577,
            0,
            0,
            -0.017750254772754454,
            -0.0070327222299812519,
            -0.0077146612061939407,
            0.006753827267939729,
            -0.0052744912126068003,
            0,
            0,
            0,
            0,
            0,
            0,
            0,
            -0.0050298495855126812,
            0,
            0,
            0,
            0,
            0,
            0,
            0,
            0,
            0,
            0,
            0,
            0,
            0,
            0,
            0,
            0.0029377347193187365,
            0.0079229727624664271,
            0,
            0,
            0,
            0.005102424858249615,
            0,
            0.0075999542522256431
          ],
        "leaf_weights":
          [
            8,
            0,
            0,
            0,
            0,
            0,
            0,
            0,
            5,
            4,
            0,
            0,
            0,
            0,
            0,
            0,
            7,
            0,
            0,
            0,
            7,
            0,
            0,
            0,
            16,
            23,
            0,
            0,
            20,
            12,
            2,
            28,
            13,
            0,
            0,
            0,
            0,
            0,
            0,
            0,
            1,
            0,
            0,
            0,
            0,
            0,
            0,
            0,
            0,
            0,
            0,
            0,
            0,
            0,
            0,
            0,
            3,
            2,
            0,
            0,
            0,
            1,
            0,
            2
          ],
        "splits":
          [
            {
              "border":1.921442985534668,
              "float_feature_index":1,
              "split_index":110,
              "split_type":"FloatFeature"
            },
            {
              "border":18.47429084777832,
              "float_feature_index":2,
              "split_index":288,
              "split_type":"FloatFeature"
            },
            {
              "border":5.3614969253540039,
              "float_feature_index":3,
              "split_index":390,
              "split_type":"FloatFeature"
            },
            {
              "border":1.5324094295501709,
              "float_feature_index":1,
              "split_index":64,
              "split_type":"FloatFeature"
            },
            {
              "border":1.9702135324478149,
              "float_feature_index":2,
              "split_index":197,
              "split_type":"FloatFeature"
            },
            {
              "border":0.31730771064758301,
              "float_feature_index":0,
              "split_index":15,
              "split_type":"FloatFeature"
            }
          ]
      },
      {
        "leaf_values":
          [
            -0.01232273194310084,
            0,
            -0.0049648285274417709,
            0,
            0,
            0,
            -0.013227220916278159,
            0,
            -0.0050632048373679354,
            0.0053050549988462843,
            0,
            0,
            0,
            0,
            0,
            0,
            0,
            0,
            0,
            0,
            0,
            0,
            0,
            0,
            0,
            0,
            0,
            0,
            0,
            0,
            0,
            0,
            -0.01132242065909749,
            0,
            -0.011612021120962787,
            0,
            0,
            0,
            0.0043428090862953437,
            0,
            -0.0091781915219336114,
            -0.0050335250133726299,
            -0.011642576092581467,
            0.0053209666123262417,
            0,
            0,
            0.0078978785948247716,
            0.0050905470485598826,
            -0.01583417624740573,
            0,
            0,
            0,
            0,
            0,
            0,
            0,
            0.0011291458890291789,
            0.011588854530988024,
            0,
            0.0075761842662569329,
            0,
            0,
            0,
            0
          ],
        "leaf_weights":
          [
            6,
            0,
            1,
            0,
            0,
            0,
            7,
            0,
            1,
            1,
            0,
            0,
            0,
            0,
            0,
            0,
            0,
            0,
            0,
            0,
            0,
            0,
            0,
            0,
            0,
            0,
            0,
            0,
            0,
            0,
            0,
            0,
            42,
            0,
            5,
            0,
            0,
            0,
            7,
            0,
            27,
            1,
            5,
            1,
            0,
            0,
            2,
            1,
            13,
            0,
            0,
            0,
            0,
            0,
            0,
            0,
            16,
            16,
            0,
            2,
            0,
            0,
            0,
            0
          ],
        "splits":
          [
            {
              "border":3.8251233100891113,
              "float_feature_index":1,
              "split_index":149,
              "split_type":"FloatFeature"
            },
            {
              "border":0.12290969491004944,
              "float_feature_index":0,
              "split_index":9,
              "split_type":"FloatFeature"
            },
            {
              "border":0.47951504588127136,
              "float_feature_index":0,
              "split_index":19,
              "split_type":"FloatFeature"
            },
            {
              "border":1.9181392192840576,
              "float_feature_index":1,
              "split_index":109,
              "split_type":"FloatFeature"
            },
            {
              "border":12.929330825805664,
              "float_feature_index":2,
              "split_index":273,
              "split_type":"FloatFeature"
            },
            {
              "border":1.158829927444458,
              "float_feature_index":2,
              "split_index":182,
              "split_type":"FloatFeature"
            }
          ]
      },
      {
        "leaf_values":
          [
            -0.0091564501093996976,
            0,
            -0.0063163586841692553,
            0,
            0,
            0,
            -0.013606196440373079,
            0,
            -0.0056119045433717296,
            0,
            -0.001494990761316089,
            0,
            0,
            0,
            -0.0054037545796942754,
            0,
            0,
            0,
            0,
            0,
            0,
            0,
            -0.013079461636226249,
            -0.0013946030538144313,
            0,
            0,
            0,
            0,
            0,
            0,
            0.0026646801603881828,
            0.012630592034833648
          ],
        "leaf_weights":
          [
            36,
            0,
            32,
            0,
            0,
            0,
            25,
            0,
            5,
            0,
            5,
            0,
            0,
            0,
            9,
            0,
            0,
            0,
            0,
            0,
            0,
            0,
            7,
            12,
            0,
            0,
            0,
            0,
            0,
            0,
            3,
            20
          ],
        "splits":
          [
            {
              "border":17.061729431152344,
              "float_feature_index":3,
              "split_index":430,
              "split_type":"FloatFeature"
            },
            {
              "border":2.2861263751983643,
              "float_feature_index":3,
              "split_index":349,
              "split_type":"FloatFeature"
            },
            {
              "border":5.0514984130859375,
              "float_feature_index":3,
              "split_index":386,
              "split_type":"FloatFeature"
            },
            {
              "border":2.6237175464630127,
              "float_feature_index":1,
              "split_index":129,
              "split_type":"FloatFeature"
            },
            {
              "border":13.88829231262207,
              "float_feature_index":3,
              "split_index":420,
              "split_type":"FloatFeature"
            }
          ]
      },
      {
        "leaf_values":
          [
            -0.0078265730159805865,
            0,
            -0.0044473623877653093,
            0.017235042224176225,
            -0.0038251970543141446,
            0,
            0,
            0
          ],
        "leaf_weights":
          [
            99,
            0,
            30,
            18,
            7,
            0,
            0,
            0
          ],
        "splits":
          [
            {
              "border":4.0272922515869141,
              "float_feature_index":1,
              "split_index":153,
              "split_type":"FloatFeature"
            },
            {
              "border":2.3821344375610352,
              "float_feature_index":1,
              "split_index":123,
              "split_type":"FloatFeature"
            },
            {
              "border":0.875,
              "float_feature_index":0,
              "split_index":29,
              "split_type":"FloatFeature"
            }
          ]
      },
      {
        "leaf_values":
          [
            -0.010408548836787369,
            0,
            -0.0093102728867611,
            0,
            0,
            0,
            0,
            0,
            -0.011145103833882352,
            0,
            -0.0028387911907958377,
            0,
            0,
            0,
            0,
            0,
            0,
            0,
            0,
            0,
            0,
            0,
            0,
            0,
            -0.0090997293068458707,
            0,
            0,
            0,
            -0.0049367294014673836,
            0,
            0,
            0,
            -0.0092388770976135643,
            0.0052652128105838787,
            0,
            0,
            0,
            0,
            0,
            0,
            -0.0095836214055675748,
            -0.0025429949155200996,
            -0.0038002843871810009,
            0,
            0,
            0,
            0,
            0,
            0,
            0,
            0,
            0,
            0,
            0,
            0,
            0,
            -0.014540756784459022,
            0.0075459241138207981,
            0,
            0.0050512176580797125,
            0.00050978967224561125,
            0.015237697270755506,
            0,
            0.0074594210044565817
          ],
        "leaf_weights":
          [
            4,
            0,
            3,
            0,
            0,
            0,
            0,
            0,
            28,
            0,
            15,
            0,
            0,
            0,
            0,
            0,
            0,
            0,
            0,
            0,
            0,
            0,
            0,
            0,
            3,
            0,
            0,
            0,
            1,
            0,
            0,
            0,
            3,
            1,
            0,
            0,
            0,
            0,
            0,
            0,
            40,
            3,
            7,
            0,
            0,
            0,
            0,
            0,
            0,
            0,
            0,
            0,
            0,
            0,
            0,
            0,
            10,
            2,
            0,
            1,
            19,
            12,
            0,
            2
          ],
        "splits":
          [
            {
              "border":3.8314611911773682,
              "float_feature_index":1,
              "split_index":150,
              "split_type":"FloatFeature"
            },
            {
              "border":0.18269231915473938,
              "float_feature_index":0,
              "split_index":11,
              "split_type":"FloatFeature"
            },
            {
              "border":16.721855163574219,
              "float_feature_index":3,
              "split_index":428,
              "split_type":"FloatFeature"
            },
            {
              "border":1.0426995754241943,
              "float_feature_index":2,
              "split_index":177,
              "split_type":"FloatFeature"
            },
            {
              "border":11.522487640380859,
              "float_feature_index":3,
              "split_index":412,
              "split_type":"FloatFeature"
            },
            {
              "border":1.8415781259536743,
              "float_feature_index":1,
              "split_index":83,
              "split_type":"FloatFeature"
            }
          ]
      },
      {
        "leaf_values":
          [
            -0.015953670623876603,
            0,
            0,
            0,
            -0.0070714409367292246,
            0,
            -0.015605493245264774,
            0,
            -0.0023144461487556072,
            -0.0055595263105440015,
            0,
            0,
            -0.01607924896218161,
            -0.0054596078024395523,
            -0.0022315892127504175,
            -0.0041984602811027871,
            -0.0059783696375584963,
            0,
            0,
            0,
            0.0080497367237040898,
            0,
            0,
            0,
            0,
            0,
            0,
            0,
            0.0052077787587668069,
            0.005203684150017044,
            0,
            0.0050394965157876496,
            0,
            0,
            0,
            0,
            0,
            0,
            -0.017283831294009053,
            0,
            0,
            0,
            0,
            0,
            0,
            0,
            0.0010835656788342537,
            0.0057127605988711947,
            0,
            0,
            0,
            0,
            0,
            0,
            0,
            0,
            0,
            0,
            0,
            0,
            0,
            0,
            0,
            0.0074362272799681616
          ],
        "leaf_weights":
          [
            14,
            0,
            0,
            0,
            19,
            0,
            13,
            0,
            3,
            5,
            0,
            0,
            14,
            5,
            3,
            4,
            15,
            0,
            0,
            0,
            2,
            0,
            0,
            0,
            0,
            0,
            0,
            0,
            1,
            1,
            0,
            1,
            0,
            0,
            0,
            0,
            0,
            0,
            19,
            0,
            0,
            0,
            0,
            0,
            0,
            0,
            9,
            24,
            0,
            0,
            0,
            0,
            0,
            0,
            0,
            0,
            0,
            0,
            0,
            0,
            0,
            0,
            0,
            2
          ],
        "splits":
          [
            {
              "border":2.6237175464630127,
              "float_feature_index":1,
              "split_index":129,
              "split_type":"FloatFeature"
            },
            {
              "border":5.7751636505126953,
              "float_feature_index":2,
              "split_index":245,
              "split_type":"FloatFeature"
            },
            {
              "border":2.0079998970031738,
              "float_feature_index":3,
              "split_index":345,
              "split_type":"FloatFeature"
            },
            {
              "border":1.921442985534668,
              "float_feature_index":1,
              "split_index":110,
              "split_type":"FloatFeature"
            },
            {
              "border":0.31730771064758301,
              "float_feature_index":0,
              "split_index":15,
              "split_type":"FloatFeature"
            },
            {
              "border":11.837656021118164,
              "float_feature_index":2,
              "split_index":266,
              "split_type":"FloatFeature"
            }
          ]
      },
      {
        "leaf_values":
          [
            -0.0090682433133490396,
            0,
            -0.0049642974413698464,
            0,
            0,
            0,
            0,
            0,
            -0.012192744544610425,
            0,
            -0.012379992450487085,
            0,
            0,
            0,
            0,
            0,
            0,
            0,
            0,
            0,
            0,
            0,
            0,
            0,
            -0.010513626481088509,
            0,
            0.0033786813327883899,
            0,
            -0.0090040931197282025,
            0,
            0,
            0,
            0,
            0,
            0,
            0,
            0,
            0,
            0,
            0,
            -0.0051253992580231438,
            0,
            0,
            0,
            0,
            0,
            0,
            0,
            0,
            0,
            0,
            0,
            0,
            0,
            0,
            0,
            -0.0089718779712885492,
            0,
            0.0079002113775952874,
            0,
            -0.0044369219130567976,
            0.012413847461393658,
            0.0050278112634939177,
            0
          ],
        "leaf_weights":
          [
            3,
            0,
            1,
            0,
            0,
            0,
            0,
            0,
            6,
            0,
            6,
            0,
            0,
            0,
            0,
            0,
            0,
            0,
            0,
            0,
            0,
            0,
            0,
            0,
            25,
            0,
            6,
            0,
            3,
            0,
            0,
            0,
            0,
            0,
            0,
            0,
            0,
            0,
            0,
            0,
            9,
            0,
            0,
            0,
            0,
            0,
            0,
            0,
            0,
            0,
            0,
            0,
            0,
            0,
            0,
            0,
            45,
            0,
            2,
            0,
            27,
            20,
            1,
            0
          ],
        "splits":
          [
            {
              "border":20.780796051025391,
              "float_feature_index":2,
              "split_index":292,
              "split_type":"FloatFeature"
            },
            {
              "border":0.50961542129516602,
              "float_feature_index":0,
              "split_index":20,
              "split_type":"FloatFeature"
            },
            {
              "border":11.490509033203125,
              "float_feature_index":3,
              "split_index":411,
              "split_type":"FloatFeature"
            },
            {
              "border":0.92218005657196045,
              "float_feature_index":1,
              "split_index":33,
              "split_type":"FloatFeature"
            },
            {
              "border":1.2643884420394897,
              "float_feature_index":3,
              "split_index":333,
              "split_type":"FloatFeature"
            },
            {
              "border":1.8115921020507813,
              "float_feature_index":1,
              "split_index":79,
              "split_type":"FloatFeature"
            }
          ]
      },
      {
        "leaf_values":
          [
            -0.008993928290296516,
            0,
            0,
            0,
            0,
            0,
            0,
            0,
            0,
            0,
            0,
            0,
            0,
            0,
            0,
            0,
            0,
            0,
            0,
            0,
            0,
            0,
            0,
            0,
            0,
            0,
            0,
            0,
            0,
            0,
            0,
            0,
            -0.0044151391821382179,
            0,
            0,
            0,
            0,
            0,
            0,
            0,
            -0.0057925007707240539,
            0,
            0,
            0,
            0,
            0,
            0,
            0,
            0,
            0,
            0,
            0,
            0,
            0,
            0,
            0,
            -0.012615107985777696,
            0,
            -0.0097854484822322025,
            0.0050741926333404443,
            0,
            0,
            0.0048424604029036556,
            0.011832484370436745
          ],
        "leaf_weights":
          [
            45,
            0,
            0,
            0,
            0,
            0,
            0,
            0,
            0,
            0,
            0,
            0,
            0,
            0,
            0,
            0,
            0,
            0,
            0,
            0,
            0,
            0,
            0,
            0,
            0,
            0,
            0,
            0,
            0,
            0,
            0,
            0,
            20,
            0,
            0,
            0,
            0,
            0,
            0,
            0,
            30,
            0,
            0,
            0,
            0,
            0,
            0,
            0,
            0,
            0,
            0,
            0,
            0,
            0,
            0,
            0,
            21,
            0,
            11,
            8,
            0,
            0,
            1,
            18
          ],
        "splits":
          [
            {
              "border":18.815113067626953,
              "float_feature_index":3,
              "split_index":436,
              "split_type":"FloatFeature"
            },
            {
              "border":16.709842681884766,
              "float_feature_index":2,
              "split_index":282,
              "split_type":"FloatFeature"
            },
            {
              "border":22.939357757568359,
              "float_feature_index":2,
              "split_index":293,
              "split_type":"FloatFeature"
            },
            {
              "border":4.0996651649475098,
              "float_feature_index":2,
              "split_index":231,
              "split_type":"FloatFeature"
            },
            {
              "border":10.114535331726074,
              "float_feature_index":2,
              "split_index":261,
              "split_type":"FloatFeature"
            },
            {
              "border":2.9522461891174316,
              "float_feature_index":2,
              "split_index":211,
              "split_type":"FloatFeature"
            }
          ]
      },
      {
        "leaf_values":
          [
            -0.01315378661359857,
            -0.014771488771702772,
            -0.0042992016555280016,
            -0.00065695663816913569,
            -0.0045485381789304698,
            0,
            0.00026204805036381432,
            0,
            0,
            0,
            -0.0091209187379977397,
            0,
            0,
            0,
            -0.0091740599267762825,
            0,
            0,
            0,
            0,
            0,
            0,
            0,
            0,
            0,
            0,
            0,
            0,
            0,
            0,
            0,
            0,
            0,
            0,
            0,
            0,
            0,
            0,
            0,
            0,
            0,
            0,
            0,
            -0.0089499103675567092,
            0.0018668126235932181,
            0,
            0,
            0.00025006697504096503,
            0.0048313798505734253,
            0,
            0,
            0,
            0,
            0,
            0,
            0,
            0,
            0,
            0,
            0,
            0.010562788135455003,
            0,
            0,
            0,
            0.01021555168717906
          ],
        "leaf_weights":
          [
            44,
            11,
            12,
            11,
            20,
            0,
            2,
            0,
            0,
            0,
            3,
            0,
            0,
            0,
            3,
            0,
            0,
            0,
            0,
            0,
            0,
            0,
            0,
            0,
            0,
            0,
            0,
            0,
            0,
            0,
            0,
            0,
            0,
            0,
            0,
            0,
            0,
            0,
            0,
            0,
            0,
            0,
            18,
            5,
            0,
            0,
            6,
            1,
            0,
            0,
            0,
            0,
            0,
            0,
            0,
            0,
            0,
            0,
            0,
            14,
            0,
            0,
            0,
            4
          ],
        "splits":
          [
            {
              "border":13.26648998260498,
              "float_feature_index":3,
              "split_index":416,
              "split_type":"FloatFeature"
            },
            {
              "border":1.9088983535766602,
              "float_feature_index":1,
              "split_index":103,
              "split_type":"FloatFeature"
            },
            {
              "border":0.10576923191547394,
              "float_feature_index":0,
              "split_index":8,
              "split_type":"FloatFeature"
            },
            {
              "border":2.1307058334350586,
              "float_feature_index":1,
              "split_index":117,
              "split_type":"FloatFeature"
            },
            {
              "border":19.972057342529297,
              "float_feature_index":3,
              "split_index":438,
              "split_type":"FloatFeature"
            },
            {
              "border":2.3821344375610352,
              "float_feature_index":1,
              "split_index":123,
              "split_type":"FloatFeature"
            }
          ]
      },
      {
        "leaf_values":
          [
            -0.012605545967146956,
            0,
            -0.0097629592482239205,
            -0.0051394606194472342,
            0,
            0,
            -0.006498982263868784,
            0,
            -0.0091014744637405477,
            -0.0049960975748219527,
            0.0052485495516500693,
            0.0032018595052412582,
            0,
            0,
            0,
            0.0093484663213952209,
            0,
            0,
            0,
            0,
            0,
            0,
            0.0053202240693113511,
            0.0074634330263232554,
            0,
            0,
            0,
            0,
            0,
            0,
            0,
            0.011090964535088886,
            -0.0035468734745650599,
            0,
            0.0029518839781683412,
            0,
            0,
            0,
            0.0050290041370053603,
            0,
            0,
            0,
            0,
            0,
            0,
            0,
            0,
            0,
            0,
            0,
            0,
            0,
            0,
            0,
            0,
            0,
            0,
            0,
            0,
            0,
            0,
            0,
            0,
            0.0073063851267553279
          ],
        "leaf_weights":
          [
            59,
            0,
            32,
            1,
            0,
            0,
            6,
            0,
            3,
            1,
            1,
            9,
            0,
            0,
            0,
            11,
            0,
            0,
            0,
            0,
            0,
            0,
            1,
            2,
            0,
            0,
            0,
            0,
            0,
            0,
            0,
            5,
            17,
            0,
            3,
            0,
            0,
            0,
            1,
            0,
            0,
            0,
            0,
            0,
            0,
            0,
            0,
            0,
            0,
            0,
            0,
            0,
            0,
            0,
            0,
            0,
            0,
            0,
            0,
            0,
            0,
            0,
            0,
            2
          ],
        "splits":
          [
            {
              "border":18.679651260375977,
              "float_feature_index":2,
              "split_index":289,
              "split_type":"FloatFeature"
            },
            {
              "border":1.9164376258850098,
              "float_feature_index":1,
              "split_index":108,
              "split_type":"FloatFeature"
            },
            {
              "border":3.576258659362793,
              "float_feature_index":1,
              "split_index":143,
              "split_type":"FloatFeature"
            },
            {
              "border":17.061729431152344,
              "float_feature_index":3,
              "split_index":430,
              "split_type":"FloatFeature"
            },
            {
              "border":5.7472877502441406,
              "float_feature_index":1,
              "split_index":161,
              "split_type":"FloatFeature"
            },
            {
              "border":0.28846156597137451,
              "float_feature_index":0,
              "split_index":14,
              "split_type":"FloatFeature"
            }
          ]
      },
      {
        "leaf_values":
          [
            -0.014632944096883644,
            0,
            -0.0022804515763009707,
            0,
            0,
            0,
            0,
            0,
            -0.013889929123280229,
            0,
            -0.0075782614179877757,
            0,
            -0.0072436235043153987,
            0,
            0.0054088083074517943,
            0,
            0,
            0,
            -0.0051905136528866205,
            0,
            0,
            0,
            0,
            0,
            0,
            0,
            0,
            0,
            0,
            0,
            0.0079299835547132283,
            0,
            -0.0024171366712300284,
            0,
            0,
            0,
            0,
            0,
            0,
            0,
            -0.0091391834707540229,
            0,
            0,
            0,
            -0.0076168555694767518,
            0.012250980824191718,
            0.0077719770307623694,
            0.0047388777086412072,
            0,
            0,
            0,
            0,
            0,
            0,
            0,
            0,
            0,
            0,
            0,
            0,
            0,
            0,
            0,
            0
          ],
        "leaf_weights":
          [
            11,
            0,
            3,
            0,
            0,
            0,
            0,
            0,
            9,
            0,
            2,
            0,
            67,
            0,
            1,
            0,
            0,
            0,
            9,
            0,
            0,
            0,
            0,
            0,
            0,
            0,
            0,
            0,
            0,
            0,
            2,
            0,
            3,
            0,
            0,
            0,
            0,
            0,
            0,
            0,
            3,
            0,
            0,
            0,
            21,
            20,
            2,
            1,
            0,
            0,
            0,
            0,
            0,
            0,
            0,
            0,
            0,
            0,
            0,
            0,
            0,
            0,
            0,
            0
          ],
        "splits":
          [
            {
              "border":19.685741424560547,
              "float_feature_index":2,
              "split_index":291,
              "split_type":"FloatFeature"
            },
            {
              "border":0.35576921701431274,
              "float_feature_index":0,
              "split_index":16,
              "split_type":"FloatFeature"
            },
            {
              "border":2.6868858337402344,
              "float_feature_index":2,
              "split_index":206,
              "split_type":"FloatFeature"
            },
            {
              "border":1.700117826461792,
              "float_feature_index":2,
              "split_index":192,
              "split_type":"FloatFeature"
            },
            {
              "border":0.72533440589904785,
              "float_feature_index":0,
              "split_index":25,
              "split_type":"FloatFeature"
            },
            {
              "border":2.2824478149414063,
              "float_feature_index":1,
              "split_index":121,
